module.conv1.weight
0.011026643 -0.12602659 0.007070625 0.038583186 0.083529525 -0.0126090655 0.11907008 -0.07916585 -0.041128494 -0.07866761 -0.04057036 0.09257502 -0.0038818603 0.055213373 -0.1229689 -0.018089935 0.004891479 0.077110775 0.028518734 0.033956934 0.095383264 -0.03657744 -0.15688008 0.0059774932 0.002609285 0.07259868 0.044557475 0.114910506 -0.095181875 -0.02091423 -0.07951066 0.061022025 0.047728177 0.08304906 0.17835015 -0.16063154 -0.10253238 -0.091257095 0.046961892 0.05118474 0.09298988 0.06386109 -0.08013041 -0.03565279 -0.08701726 -0.0074004713 -0.003205144 0.03200072 0.14741425 -0.25470844 -0.21965462 -0.11070736 -0.059068244 0.048375696 0.10458726 0.24147382 -0.16315447 -0.14210784 -0.05358745 -0.064679325 0.19425187 0.16941927 0.24557652 -0.27896318 -0.26692447 -0.14527974 -0.011797097 0.10098899 0.24115944 0.22195102 -0.30401742 -0.16294758 -0.087898664 -0.06280254 0.12993596 0.16577885 0.31555882 -0.25436008 -0.20880485 -0.08970619 0.025221368 0.09369726 0.23424377 0.24677873 -0.21151571 -0.1990231 -0.09042735 -0.063133486 0.15431839 0.1495147 0.34381092 -0.18016598 -0.21475743 -0.01728323 0.038611617 0.17200112 0.106093116 0.26360494 -0.17349504 -0.11750643 0.026328627 0.028762087 0.04407274 0.027858311 0.20647435 -0.19862801 -0.039371096 -0.110093 -0.009759997 -0.03308099 0.121694416 0.20164315 -0.15733968 -0.17980866 0.013039053 -0.001061589 0.05408421 0.13421972 0.24165724 -0.18799247 -0.08042921 -0.037212785 0.035371006 0.00037671404 0.097658604 0.23330417 -0.117778875 -0.082497835 -0.15201542 0.049627833 0.03132904 0.050135188 0.13279669 -0.1459905 -0.0876077 -0.13090946 0.014580808 0.061743766 0.07899214 0.25903606 -0.25092626 -0.20764421 -0.0883798 0.024407359 0.065009214 0.051643867 0.24056412 -0.008789484 -0.061346307 -0.126843 0.019166658 -0.11556294 -0.06625054 -0.053396653 -0.093291834 -0.10978557 -0.082008645 -0.04525331 -0.09554043 -0.17623569 -0.043437574 -0.08551641 -0.20644501 -0.1386429 -0.18438469 -0.07505968 -0.045369178 -0.1314957 -0.08806578 -0.20864066 -0.10858731 -0.082112305 -0.053836256 -0.18752556 -0.18078215 -0.13877867 -0.15276735 -0.113408625 -0.13744499 -0.1726142 -0.14846958 -0.13774014 -0.08707647 -0.19272977 -0.098607965 -0.029299462 -0.06287982 -0.14508086 -0.12069497 -0.13298267 -0.041586418 -0.085639104 -0.14435995 -0.098510265 -0.050964545 -0.16410641 0.1436752 0.10389524 0.062393147 0.10790876 0.10855683 0.05916918 0.023353655 0.11839386 0.029950798 0.12546602 0.13953616 0.070786 0.13892426 -0.004019684 0.011212335 0.11619423 0.09164276 0.13970113 0.038768206 0.13423878 0.03852409 0.012191754 0.08282851 0.03776751 0.059358224 0.089985564 0.10048681 0.14516687 -0.023325695 0.046650138 0.14744118 0.18678837 0.18549801 0.13242868 0.12179433 0.11365037 0.012498323 0.10146094 0.10346486 0.07648613 0.051811863 0.09534739 0.07309828 -0.056599077 0.04022415 0.010252408 0.06514896 -0.037609838 -0.010305966 0.0012560227 -0.009409959 -0.057799507 0.11309215 0.092977785 -0.030402562 -0.17584494 0.07811922 0.16678536 0.16754809 0.13107552 0.10876412 0.09119303 -0.044440202 0.081567675 0.11987437 0.15263793 0.31555676 0.2397174 0.16115396 0.011156795 0.24718279 0.38497457 0.31789935 0.48801097 0.40262094 0.24898592 0.13637288 0.28762653 0.29068124 0.39082634 0.45548376 0.31865942 0.2661488 0.1364539 0.13154392 0.13513194 0.12612087 0.29002228 0.19559905 0.09105392 -0.027601717 0.020291314 -0.066580296 0.01191594 0.041087907 0.038489405 -0.109308615 -0.14722995 -0.110097125 -0.23274791 -0.2165378 -0.18384218 -0.043367777 0.009792282 0.0094785085 -0.10988705 -0.13696766 -0.19900471 -0.08216604 -0.1604569 -0.11310948 -0.010338737 -0.10344499 -0.054426234 -0.15816605 -0.14242746 0.019851372 0.03248185 0.07111661 0.01694835 -0.051904757 -0.13890424 -0.049624663 -0.06029141 -0.050711125 0.010872429 0.077632114 -0.02443059 -0.063399784 0.049389657 -0.012135396 0.16276453 0.09576026 -0.004226603 0.08461953 0.034753665 0.046523035 0.10392337 0.11146136 0.1945089 0.1668412 0.044537034 0.07883941 0.050109398 0.23881093 0.118919745 0.22973122 -0.2158531 -0.27710944 -0.21613671 -0.19396117 -0.14774837 0.043463785 0.0687032 -0.17228605 -0.3141806 -0.18004823 -0.14940363 -0.06630036 -0.0713695 -0.022551157 -0.059044022 -0.20060593 -0.14852709 -0.028978817 -0.035822794 0.028625058 0.03539273 -0.049218327 -0.20150004 -0.12747712 -0.010093411 0.0011993265 0.08959919 0.23750181 -0.0788458 -0.121434 -0.05841277 -0.02518864 0.13103937 0.1293458 0.18669586 -0.041479867 -0.03241666 0.019305782 0.068568505 0.13689826 0.1927705 0.31839645 0.10730737 -0.0029315972 0.08800347 0.16023456 0.20243894 0.20003793 0.2366072 0.029733645 -0.21499453 -0.13941833 -0.14054583 -0.09451825 -0.017216701 -0.08136455 0.004451603 -0.22894922 -0.19992489 -0.17498532 -0.15897271 -0.043260615 0.008761258 0.034270793 -0.13665931 -0.17454408 -0.12413568 -0.041679397 -0.043118622 0.0136104105 0.030113671 -0.09315435 -0.0975804 -0.09121327 -0.081497505 0.006783447 0.09121738 0.023290167 0.000668531 -0.058520876 0.039145857 0.09461018 0.16134784 0.088870235 0.12873818 0.013318743 0.051941108 0.030371858 0.14654392 0.13331735 0.2202574 0.15371409 0.15452778 0.052418593 0.19487013 0.22966556 0.13222638 0.21322718 -0.23958756 -0.12750843 0.016258502 0.044276267 0.11248291 0.1222101 0.05337897 -0.18503956 -0.09134145 0.0059058284 0.035910282 0.09994796 0.016293326 0.015940446 -0.10828561 -0.11323438 0.0037035244 0.07621232 0.043063104 0.078122675 0.007606885 -0.0620655 -0.0037910838 -0.0449425 0.06272027 0.12856796 0.20783986 0.071846716 -0.104390055 -0.08834167 0.094978735 0.19344266 0.1555794 0.14553882 0.11888515 -0.24067083 -0.13163531 -0.0718116 0.13690053 0.06127115 0.096534915 -0.05359947 -0.24316485 -0.086133294 -0.023212811 -0.04423229 0.09062024 0.07913185 -0.02569382 -0.053332884 -0.06043015 -0.016518002 0.06881842 0.04136139 -0.036262684 -0.07820007 -0.12839538 -0.06124163 0.08141025 0.06890793 0.08384492 -0.008499936 -0.15756302 -0.068150796 -0.012504713 0.1568545 0.1502808 0.17402865 0.14209025 -0.013636248 -0.051956497 0.038536504 0.19751398 0.2876683 0.112345025 0.048578296 -0.13490453 0.10021772 0.12548837 0.18946232 0.25542304 0.09083435 0.12275371 -0.08652545 0.026658295 0.070236646 0.14026575 0.118986875 0.046041064 -0.049599282 -0.20889828 -0.088804334 -0.124896884 -0.114267886 -0.04823572 -0.023069086 -0.18515843 -0.3716031 -0.2873753 -0.3196851 -0.19386537 -0.08366888 -0.18763907 -0.20079795 -0.29030296 -0.17392072 -0.19202594 -0.17019889 -0.05595018 -0.18654563 -0.17098185 -0.31886604 0.005452509 -0.09583467 -0.0001121755 0.16722423 0.06589973 -0.028209766 -0.21165082 0.12228763 0.122983426 0.123534285 0.24353041 0.0025597461 0.07913701 -0.12695272 0.13193825 0.13536537 0.1897127 0.27840322 0.19670668 0.060102034 -0.12484824 0.17430313 0.16386868 0.16220157 0.27785718 0.07930474 0.15467547 -0.10144536 0.13503408 0.1981308 0.21001409 0.21244209 0.059644643 0.05016386 -0.15041576 -0.002157999 -0.025561443 -0.016666723 0.09536538 0.087697834 -0.009926687 -0.0020214613 0.07516915 0.020720845 0.03513236 0.15890843 0.115429685 0.07450261 0.050873164 0.025086856 0.04874605 0.12325128 0.18786062 0.16195913 -0.013113737 0.0072354795 -0.0038630194 0.1327586 0.13096808 0.15848914 0.09455896 0.060843375 -0.01272786 0.0066174986 0.10707903 0.013356452 0.08742822 0.20164421 0.028249756 -0.05335795 -0.09056077 -0.06448941 0.014667288 0.097991146 0.12405745 0.022070233 -0.060600225 -0.16503465 -0.03470143 0.028180843 -0.021226335 0.04628325 -0.0032052605 -0.05851386 0.057796046 0.19258884 0.13520558 0.24954389 0.26276582 0.04715307 0.027831981 0.2666246 0.2093063 0.23434927 0.3638968 0.30819678 0.078035526 0.04559722 0.12466455 0.2525877 0.26660827 0.42994565 0.26417774 0.092193 -0.0049944976 0.17027295 0.12802821 0.24387422 0.2992267 0.369347 0.1299834 0.08672488 0.06826338 0.09979398 0.2070658 0.21254851 0.18728575 0.07335444 -0.028060894 0.0188263 0.04184198 0.08618121 0.09251345 0.1204947 -0.106685884 -0.100002065 0.016240742 -0.08434305 -0.106721275 0.047802065 -0.04356893 -0.15760706 -0.18365481 0.13246977 0.15901165 0.15532352 0.16051202 0.125996 0.1273443 0.02264018 0.0638276 0.09837424 0.14051737 0.16548923 0.16542055 0.042731512 0.085799 0.17865945 0.12503973 0.11370657 0.2537275 0.085481234 0.027089614 -0.05323543 0.16663387 0.1210032 0.10265987 0.21140644 0.21514276 0.12699327 -0.01272816 0.08804221 0.10341886 0.03434582 0.12910318 0.12477627 0.101691894 0.04261686 0.003388723 0.05703128 0.011318624 0.081673145 0.07113643 0.009522218 0.003807459 0.038428426 0.058313414 0.024723958 0.008338985 0.053103663 0.029644813 -0.02237629 0.031474754 -0.0055461 0.006839244 -0.023725607 -0.027506763 0.10857839 0.08068742 0.13866073 0.15491222 0.14086394 0.0011366768 0.09753319 0.025577946 0.14253742 -0.029967131 0.06427716 0.007744231 -0.082463466 -0.027089542 0.013720049 0.047148574 -0.02761261 -0.05434009 -0.056834016 -0.12178929 -0.047723003 -0.08517334 0.030964447 -0.016334562 -0.08214527 -0.08696983 -0.056252968 -0.046981204 -0.11732548 0.016894577 -0.0006746273 0.03511176 -0.06725722 -0.109184876 -0.010260652 -0.052734077 -0.0010532049 0.014667752 -0.019336184 -0.09003435 -0.09707626 -0.02077053 -0.0516546 -0.058696307 0.13337971 0.042193852 0.057782408 -0.19185992 -0.027340055 -0.0582631 0.12703371 0.15862788 0.15621303 0.06058175 -0.1947951 -0.09223082 0.09395869 0.22001667 -0.114240296 -0.091086805 -0.22601143 -0.3617079 -0.3650524 -0.13067898 0.105738744 -0.28907767 -0.29671693 -0.40883386 -0.55694306 -0.5404669 -0.29392707 -0.11399354 -0.23112977 -0.39873117 -0.5539506 -0.76488435 -0.7024267 -0.4592878 -0.22874825 -0.00779054 -0.16114673 -0.28097257 -0.4577302 -0.3360321 -0.12643485 0.016587019 -0.07007997 -0.1429814 -0.28181306 -0.37783363 -0.36378542 -0.045082096 0.15737492 0.014680516 0.036747698 -0.03570461 0.02154152 0.025516957 -0.0725208 -0.06491647 0.087759905 -0.0160084 0.075162835 -0.0320813 0.050018538 0.047336765 0.04419564 0.02542787 0.030087937 0.07601386 0.00025782373 0.056552712 -0.04144454 0.094600044 0.048985828 0.061575573 0.0017309808 -0.043551527 -0.011379859 0.029991735 -0.031522937 -0.013423215 0.089991525 -0.006059297 0.02519863 0.0514812 0.074378416 0.045160964 0.031279862 0.11472074 0.17447084 0.116600566 0.073695056 0.11489321 0.0884318 0.16223297 0.09210386 0.12494554 0.07407738 0.024716383 0.17828456 0.18824427 0.08982775 0.07795016 0.0058800895 -0.086030886 -0.14334753 -0.09639216 -0.03963419 0.14598967 0.063746884 0.037640896 -0.100474216 -0.17954075 -0.08632834 -0.08640847 -0.0028242974 0.03932833 0.002848066 -0.10553282 -0.100587115 -0.10687298 -0.06612727 0.042436317 0.029967833 -0.016327897 -0.0907446 -0.19346474 -0.07959153 -0.0667883 0.059470493 0.18002208 -0.07555396 -0.04771968 -0.16762047 -0.063702844 -0.025102274 0.13746633 0.13393584 -0.002802145 0.048840743 -0.013477367 -0.004256371 -0.084370844 0.25884783 0.22622737 0.21934149 0.15355207 -0.044498194 0.03066792 -0.003910972 0.3747385 0.41099775 0.19070594 0.06743966 -0.12125809 0.13208655 0.11187162 0.3116383 0.28431913 0.11324776 -0.042085696 -0.13530415 -0.04739213 0.026536046 0.30667228 0.20150994 -0.0415598 -0.19041468 -0.42396092 -0.13140428 -0.13978583 0.27799603 0.10105257 -0.05336273 -0.38302025 -0.61974514 -0.46053436 -0.43820363 0.15244831 0.16225052 -0.05865654 -0.36234495 -0.59591204 -0.35836685 -0.40595865 0.17919113 0.15721238 -0.06665172 -0.1604474 -0.36384755 -0.12368175 -0.12418453 0.24839427 0.2718368 0.11683977 -0.051160555 -0.17750193 -0.004264187 0.07135787 -0.00071339175 0.069823615 -0.024182959 0.060639273 0.01764285 0.104175836 0.21686485 -0.019469202 0.09138389 0.062484015 0.06255755 -0.05314866 0.067082934 0.14899485 0.032003593 -0.057985216 0.004982674 -0.027435938 -0.097132124 0.047651667 0.025776086 -0.029895892 -0.048709754 -0.019112704 -0.022392292 -0.11652167 0.0024706738 0.07551652 -0.02218672 -0.0638292 -0.023753451 -0.012593402 -0.16131835 0.016808424 0.10402056 -0.09926406 -0.03139802 -0.06986665 -0.16266048 -0.03429708 0.024484804 0.123361945 0.029539192 0.07746205 0.053099155 -0.131261 -0.123291105 0.10170943 0.15404402 -0.010348147 0.006550983 -0.039572656 -0.11720345 -0.06604987 -0.058514763 -0.06565453 -0.083039664 0.020708157 -0.02193805 -0.109793544 -0.16501668 -0.12570152 -0.05437178 -0.07254406 -0.14465576 -0.12308695 -0.13706392 -0.100977615 -0.12773137 -0.04234593 -0.04647831 -0.110412985 -0.010172094 -0.12945972 -0.18384087 -0.14466494 -0.084182695 -0.017038606 -0.13579528 -0.10132724 -0.08370572 -0.10602353 -0.16381769 -0.13572866 -0.08376008 -0.1025368 -0.10117686 -0.17140985 -0.08261829 -0.09525803 -0.12245604 -0.13023081 -0.1461186 -0.13793014 -0.13608694 -0.083640754 -0.049638633 -0.043086916 0.09372309 0.20558366 0.08683148 0.0963629 0.11659074 0.17287211 0.15104806 0.093514524 0.17653239 0.12879926 0.14494717 0.18851079 0.16404326 0.067256905 0.2018946 0.23789504 0.12237168 0.17899753 0.20607881 0.16630931 0.17823562 0.13101953 0.14641759 0.24182218 0.18781415 0.13301124 0.13913958 0.124916285 0.18813676 0.106017195 0.24591161 0.16109465 0.12295794 0.25594515 0.1774239 0.20902398 0.18001252 0.24218808 0.22467296 0.108624674 0.15547474 0.15204683 0.19021493 0.13174525 0.1356446 0.1738274 0.16405232 0.18677503 0.18580602 -0.01974576 -0.15991913 -0.09257171 -0.063339494 -0.13111459 -0.10147561 -0.075455114 -0.13160166 -0.08205518 -0.06473333 -0.051021088 -0.020412413 -0.08896267 -0.14994998 -0.0059356247 -0.1283423 -0.037848003 -0.11027964 -0.08535407 -0.02389975 -0.11782816 -0.10625691 -0.078973 -0.03888811 -0.03543256 -0.036012195 -0.13481975 -0.071518965 -0.11785017 -0.060050305 -0.11231421 0.025604293 -0.0005743677 -0.01838245 -0.1461312 -0.118387096 -0.1062953 -0.1258887 0.013338014 -0.10673235 -0.07724867 -0.08357853 -0.10519368 -0.06692814 -0.12725332 -0.13725975 -0.011840917 -0.0055899112 -0.0011851368 -0.23563793 -0.07340328 -0.08573052 -0.1151972 -0.10004473 -0.13303976 -0.14040054 -0.09174015 -0.033294432 -0.13599469 -0.0060518943 -0.08547952 -0.13285 -0.21147245 -0.11156609 -0.07473497 -0.040102847 -0.025066946 0.002087377 -0.096258074 -0.10922597 -0.014594283 -0.10312744 -0.09763659 -0.0313527 -0.08388177 -0.06576696 -0.13979006 0.007732574 -0.04954256 -0.025792634 -0.00074518955 -0.066108905 -0.01766532 -0.08207372 -0.007884144 0.06112919 -0.028760849 0.028591989 0.042047456 -0.021040378 -0.06254467 -0.07109844 0.044840816 -0.027930425 0.03976834 0.061112244 0.048164763 0.02335558 -0.14444137 -0.006815061 -0.116846904 -0.10042218 0.006392573 -0.12242814 -0.071822405 -0.088473335 -0.008454805 -0.05314514 -0.06955044 0.0212996 -0.15158138 -0.11585356 -0.065142944 -0.03252157 -0.0918855 -0.0010317178 -0.07502153 -0.0032912418 -0.14139536 0.064243354 -0.03295077 0.10909325 0.03175594 0.09379593 0.033809047 0.03567429 0.070086114 0.13138351 0.045431692 0.020239078 0.0992651 0.11201013 -0.009388334 -0.039022114 -0.019458987 0.095475316 0.03696633 0.04887778 0.05300489 -0.058819164 0.024345938 0.1315769 0.053150214 0.15958987 0.12651289 0.10755573 0.042086236 0.102184124 0.1622859 0.14218873 0.28639176 0.22610852 0.050744247 0.10054382 0.013629869 0.14487512 0.24764077 0.3179275 0.2594812 0.13167259 0.052120503 0.20512702 0.22864129 0.23404202 0.37168235 0.3023405 0.13756181 0.04985345 0.29790395 0.3833526 0.40960395 0.4681649 0.42053604 0.20907184 0.21987963 0.34786108 0.32811016 0.35703972 0.52456427 0.39988595 0.35477933 0.12137674 0.17450856 0.2840879 0.3038833 0.36655995 0.2731854 0.21784304 0.1011545 0.17544462 0.16854002 0.16896334 0.30266318 0.18585388 0.06410777 -0.073974386 0.0214841 -0.04011764 0.02525492 -0.019532496 0.03971523 -0.007762651 -0.008094902 -0.05894136 0.017945092 -0.0029478746 -0.03543334 0.02982091 0.06460872 0.08621096 0.030368412 0.09785779 0.070625104 0.033039585 -0.007235658 0.021913921 0.05371424 0.024697606 -0.009628994 0.12044941 0.09166512 0.012182044 0.10046819 0.14661694 -0.011680843 -0.026688766 -0.022975532 0.024538703 0.07212538 0.10383423 0.030710716 0.03445837 0.02783607 0.063546784 0.07598211 0.12636515 0.07185182 0.21835418 0.099474676 0.12950383 0.0428001 0.07916043 0.124410644 0.11709895 0.13321277 -0.03147698 -0.024879433 -0.016011208 -0.1570376 -0.026010295 0.046394434 0.1443533 -0.060101498 0.040382747 -0.14662802 -0.14595734 -0.15250622 0.0050926465 0.012213016 -0.02776454 -0.019051187 -0.09352018 -0.17525622 -0.18871716 -0.1201904 -0.07763804 -0.16350283 -0.20443551 -0.15906955 -0.3535906 -0.27211905 -0.0972829 -0.048487507 -0.102901444 -0.098874524 -0.23936066 -0.30020732 -0.2879482 -0.23649558 -0.09030929 -0.09412816 -0.17795412 -0.13973306 -0.31019852 -0.17685752 -0.15613613 0.051477447 -0.17192186 -0.12640709 -0.12911339 -0.2914711 -0.30866075 -0.1799333 -0.02454834 0.19434556 0.11703339 0.055494595 -0.09252251 -0.13582654 0.008559574 0.013757455 0.18829991 0.07652965 0.059817277 -0.096242435 -0.096939124 0.06688564 -0.061999153 0.09650353 0.15376423 0.029154135 -0.22248639 -0.27599332 -0.117403835 0.008929568 -0.028097922 0.05373106 -0.14321852 -0.3218298 -0.25788328 -0.16377723 -0.19312291 -0.040857673 -0.016922068 -0.15341817 -0.34494978 -0.39448896 -0.16148739 -0.17918348 0.038114995 0.0920949 -0.074806534 -0.1645665 -0.19675863 -0.11847092 -0.0804544 0.06905112 0.09068049 -0.036417697 -0.2888211 -0.2577128 -0.01843511 -0.017914629 0.004837547 0.04594315 -0.035314668 -0.028904289 -0.05774661 -0.034573928 -0.08641364 -0.0053818626 0.009169207 -0.038737405 0.0252471 -0.006270073 -0.079303436 -0.050878525 -0.0065223705 0.116956875 -0.037570074 0.032911476 -0.013939349 -0.12540299 0.0015802935 0.061560925 0.10091319 -0.0418632 -0.017621195 -0.09362749 -0.013595813 0.028709605 0.050057948 0.013728512 0.10495069 -0.061328426 -0.07900398 0.037322734 -0.021616766 0.050201885 0.009594798 -0.03286173 0.018309208 -0.0528161 0.06566298 -0.03400067 0.042786118 0.17637397 0.071099676 0.073902205 0.1107484 0.01363042 -0.009054411 0.18108633 0.06931294 -0.03271429 -0.06313767 -0.02390564 -0.014957761 -0.085837424 0.15980469 0.029523632 0.082252614 -0.07610666 -0.0132520655 0.04829164 0.04735444 0.100314595 0.1248716 -0.0067195087 -0.043462683 -0.0067718965 -0.0029276412 -0.055890452 0.08627322 0.07650528 0.009345139 -0.05818395 -0.080528766 -0.014328477 -0.024095198 0.075963065 0.18396683 0.0063117137 -0.032061793 -0.03289158 0.03626877 0.0909121 0.23258065 0.0741568 0.11047139 0.07275146 -0.06400935 0.040833317 0.052081842 0.28552532 0.21509427 0.15484609 0.16508694 0.14992309 0.05692105 0.18168852 0.18729311 0.15533333 -0.061730202 -0.19792932 -0.17082813 -0.07251084 0.16293257 0.15254469 0.09479893 -0.074453294 -0.32857096 -0.2931488 -0.066023305 0.050430313 0.07993612 -0.046021048 -0.11899346 -0.37418717 -0.48960328 -0.24009477 -0.07403252 -0.1264422 -0.26803973 -0.4023158 -0.6891346 -0.7309496 -0.47347108 -0.2906233 0.0024648954 -0.23554212 -0.30969566 -0.5260135 -0.7128532 -0.37093034 -0.2717789 0.036484867 -0.110484816 -0.17307779 -0.46015987 -0.5005782 -0.21285805 -0.17818893 0.16111296 -0.005193757 -0.13195036 -0.37735197 -0.36685473 -0.15017147 0.009478172 -0.10567105 -0.100322485 -0.12926736 -0.012142028 -0.08364913 -0.037562363 -0.064139016 -0.08050292 -0.17554663 -0.07569103 -0.10200873 -0.08633251 0.06379483 0.017665766 -0.06814041 -0.12166021 0.002709502 0.03665828 0.05976491 0.03726106 0.082376614 -0.08074399 -0.12366007 0.043521147 0.07683007 0.10585257 0.11508419 0.092439845 -0.01234355 -0.025502177 -0.02744463 0.045086868 0.18159291 0.21234313 0.17493682 -0.08685901 -0.026790693 -0.01217028 0.078601606 0.14522868 0.09188897 0.17356083 -0.06709946 -0.02138549 0.07192524 0.009306593 0.12352565 0.08955194 0.22913602 -0.19710773 -0.10881901 -0.013382506 0.042415228 0.1302161 0.19138323 0.13018289 -0.20959395 -0.11777826 -0.108217336 -0.06760876 0.055968627 0.20555107 0.13965632 -0.1612947 -0.22901765 -0.08068456 -0.013479779 0.034740016 0.16231647 0.17663784 -0.17080875 -0.17946088 -0.12159789 0.012068831 0.118259035 0.25439692 0.33194762 -0.27673832 -0.2193666 -0.106201015 0.036384158 0.15279533 0.3004931 0.33442402 -0.19763127 -0.17538509 -0.0482703 -0.030259665 0.03572073 0.15873496 0.29053703 -0.18502514 -0.19327947 -0.032690596 -0.026340386 0.12494302 0.14029288 0.3174211 -0.0054745045 -0.09504031 -0.028834948 0.012428696 0.027950158 0.10581088 0.07331957 -0.051800594 -0.17969899 -0.037875973 -0.037784565 0.10808371 0.15653461 0.10599332 -0.08469318 -0.15264751 0.009541084 0.055999298 -0.025558665 0.118811734 0.17960362 -0.184332 -0.2131382 -0.072563194 -0.04678793 0.059808493 0.06024165 0.17515278 -0.18313815 -0.11931335 -0.16126177 -0.04630685 0.07044369 0.06271098 0.087298326 -0.15707454 -0.11373167 -0.0642075 -0.024094498 0.07529285 0.021061432 0.09615797 -0.18813536 -0.24715585 -0.05638468 0.01048123 -0.066482954 0.09595339 0.15766749 -0.067113996 -0.08418241 -0.11851314 -0.001660699 0.03587963 0.10495213 0.1489461 -0.24243006 -0.15522464 -0.04616381 -0.039505918 -0.020786976 0.07437398 0.19749233 -0.13502504 -0.10604012 -0.05992573 -0.035145078 0.06513928 0.13820584 0.16717146 -0.14450742 -0.09932123 -0.06990066 0.01716299 0.06077927 0.12831369 0.1996673 -0.19187693 -0.15045829 -0.0171481 -0.016529657 0.08894996 0.12803496 0.27081499 -0.17455727 -0.15432645 -0.112631865 -0.026412658 0.023011232 0.10110316 0.22774741 -0.13589233 -0.022227205 -0.071430996 0.02787286 0.10279501 0.13508828 0.108187154 -0.2066697 -0.20907544 -0.14826079 0.025410255 0.07153512 0.12681068 0.16486019 -0.33880356 -0.24295995 -0.06641605 0.036044553 0.101942144 0.18132001 0.17909312 -0.31132594 -0.22303393 -0.036121435 -0.0039256937 0.16853017 0.199655 0.2720272 -0.19550574 -0.17921768 -0.08579523 -0.030835118 0.14431678 0.24052972 0.19636555 -0.26242104 -0.20281242 -0.10859857 0.06996516 0.096101634 0.14017077 0.29182717 -0.17047419 -0.23957548 -0.008467946 0.014162762 0.04825562 0.099253565 0.18664819 -0.22168362 -0.097910464 -0.05494094 0.08776608 0.13714771 0.16620317 0.23035641 -0.072852805 -0.052069083 0.034992952 0.016368615 0.07314233 0.055730313 0.033858612 -0.068373114 0.01974269 -0.044704124 -0.043418463 -0.024344247 0.0028014123 0.023477957 -0.10060699 -0.071604066 0.026025435 -0.007843494 0.13459773 0.058933973 0.13199347 -0.12926777 -0.04443352 0.058682617 0.006438729 0.040438984 0.06308378 0.073910706 -0.09878923 -0.10496507 -0.072585754 -0.017858515 -0.009201438 0.010743566 0.16111545 -0.055178 -0.013042812 -0.0478414 -0.04207773 -0.057601318 0.034559738 -0.008363668 -0.048903022 -0.13899824 -0.012759069 0.048839334 -0.00291722 0.011993862 0.0920369 -0.010713531 -0.1700194 -0.1132014 -0.036681015 -0.033173054 0.03790004 0.0072317985 -0.04789996 -0.14137721 -0.04163385 0.0053974083 0.010962036 0.0886093 0.016161127 -0.01862163 -0.18142802 -0.022587445 -0.022560537 -0.03577861 -0.0014530317 0.13370214 -0.1504689 -0.15390743 -0.11157094 -0.09067738 0.070371635 0.015333919 0.070561156 -0.06719463 -0.14767541 -0.033858914 -0.1072891 0.014972372 0.02080423 0.057591096 -0.051815618 -0.044465683 0.018191708 0.05098067 0.18644516 0.121367216 0.25466105 0.063813366 0.003963968 0.032128897 0.13174808 0.04611879 0.16080089 0.21356104 0.02012775 -0.056882635 -0.0053632325 0.16240142 0.12610656 0.24962144 0.28536502 -0.10089544 -0.13361846 -0.064119264 0.048586976 0.1249695 0.32524765 0.3497175 -0.16957644 -0.29698685 -0.24976756 -0.10090017 0.16769151 0.25461462 0.29764602 -0.30633643 -0.49796864 -0.29296303 -0.17188929 0.0069398014 0.18161955 0.33460543 -0.50750095 -0.68628156 -0.50067616 -0.31210595 -0.064519085 0.10351225 0.23530501 -0.27766255 -0.32705355 -0.2896161 -0.15142831 0.01916496 0.16822968 0.37152666 -0.25035334 -0.45281056 -0.23436417 -0.1326821 0.008363637 0.11129079 0.23296118 0.11521869 -0.0066563687 0.037676092 0.05027119 0.025150267 0.002242287 -0.013634758 0.20236923 0.046650723 0.06799925 0.082383014 -0.0305816 0.020731509 0.040603843 0.048698634 0.037654523 0.1021293 0.034608237 0.11255604 0.036857866 0.013487359 0.12913042 -0.051094905 -0.05883407 0.029132988 -0.04301188 -0.06647878 0.060856495 -0.009123907 -0.011085002 0.04220273 0.039085474 -0.09977881 0.0068007307 -0.0027235074 0.039926544 -0.05375137 0.011180977 0.003495785 -0.024021016 0.07193648 0.016713006 0.08484812 0.020306734 -0.0846693 -0.104431614 -0.017062029 -0.013718379 -0.041494824 -0.23899828 -0.14450097 -0.2034997 -0.11742889 -0.08957115 -0.017920084 -0.15780933 -0.28103447 -0.27897152 -0.06770635 -0.08826047 -0.08474071 -0.10652172 -0.017771339 -0.12191326 -0.082680576 0.047456082 0.13047639 0.10369923 0.100044996 0.03971469 -0.063558884 0.005355371 0.08160145 0.058792323 0.14454861 0.08348013 0.17299394 0.006946864 0.0072742244 0.08764022 0.09085157 0.14184517 0.21540736 0.0745436 -0.010542587 -0.017141739 0.10942777 0.14960515 0.13958085 0.112778746 0.15210968 -0.13741608 -0.03777082 -0.02426011 0.13251446 0.055044454 0.08084321 0.09222916 -0.16341251 -0.05285582 -0.07448492 0.07462189 0.1024412 0.056519575 -0.18396148 -0.14373752 -0.0703647 0.08841105 0.21250731 0.20097049 0.086845815 -0.13759404 -0.10764026 -0.06423028 0.12771724 0.21106493 0.21748774 0.14706643 0.046648636 0.01736989 0.050970107 0.15581919 0.3487246 0.44120458 0.27586138 0.054341063 -0.07233367 -0.09662272 0.14647917 0.18869746 0.17530438 0.19449982 -0.06837436 -0.19562061 -0.15395571 0.024890894 0.19898735 0.15106691 0.024983622 -0.14477609 -0.42369494 -0.3726795 -0.35283703 -0.12222711 -0.19977611 -0.21243934 -0.3193693 0.16141431 0.06547429 -0.06565298 -0.013236524 -0.046262797 -0.11902867 -0.2545093 0.19474457 0.006314827 0.02788613 -0.005536299 0.0070413244 -0.1456948 -0.17622027 0.15232508 0.021332197 0.085911475 0.10853178 0.020942435 -0.04963482 -0.10584136 0.24200198 0.06832571 0.055247642 0.12939084 0.011072358 0.0074424595 -0.15973715 0.161354 0.12696281 0.12299593 0.0824055 0.015143638 0.002389101 -0.2665375 0.13661632 0.15951513 0.07211925 0.012563652 0.07204077 -0.12975028 -0.22511601 0.09318633 -0.040455073 0.042659335 -0.089995615 -0.062088814 -0.21240701 -0.24628362 -0.05237563 -0.03604972 -0.05364504 -0.08544324 -0.22275832 -0.25721997 -0.27141532 -0.0024402938 -0.123833925 -0.029845746 -0.13578454 -0.090405844 -0.12552242 -0.2917428 -0.06272782 0.0400204 -0.026608909 0.012394343 -0.14598559 -0.19788112 -0.13135652 0.019659081 -0.0065216 -0.019362662 -0.025396151 0.015659118 -0.08450717 -0.12195085 0.11505661 0.14857514 0.07269878 0.018119168 0.009252355 -0.056284692 -0.12525162 0.17195883 0.20420592 0.14736028 0.049809013 0.060410876 -0.0072676265 -0.092599005 0.27496287 0.29839075 0.26326013 0.1897283 0.15443347 0.13427062 0.10628146 0.050560385 0.021565039 -0.022495136 -0.031911783 -0.09283553 -0.16669478 -0.09325718 0.11654622 -0.0096004885 0.08488468 -0.04790019 -0.100850955 -0.17257872 -0.18673225 0.13424386 0.09971324 0.09198966 0.009293927 -0.14415614 -0.1953607 -0.19303443 0.1485987 0.058779273 0.13021502 0.094856255 -0.0018901583 -0.17742355 -0.112939164 0.16463885 0.14093187 0.09242576 0.11798893 -0.035829153 -0.107634775 -0.09721932 0.16005076 0.18444273 0.12732087 0.058910813 -0.065670066 -0.14105518 -0.15202214 0.061832823 0.1733547 0.016838716 -0.031609744 -0.01803787 -0.0054866457 -0.1374924 0.109430365 0.15049432 0.16524905 0.14018561 0.07245803 0.06972932 0.023045423 0.067162044 0.2166429 0.118895344 0.09449437 -0.042295534 -0.078610525 -0.04286251 0.17103332 0.11593463 0.06878532 0.01039157 0.016169164 0.03465144 -0.06619917 0.045680564 0.20645809 0.10606204 0.07802392 0.032681037 -0.0798946 -0.23503202 0.17727786 0.13834284 0.090222135 -0.028649066 -0.058272444 -0.049766023 -0.2496491 -0.021095507 0.13568646 -0.04319333 -0.098327436 -0.1828806 -0.18804602 -0.26292473 0.00011104803 0.049164265 -0.113708764 -0.11904752 -0.117193915 -0.12743528 -0.31035057 -0.028083965 -0.04848805 0.019826924 0.0016282491 0.10131408 0.1103607 -0.003062462 0.063732915 0.05530238 0.09140333 -0.04217472 0.011764911 0.14201872 0.08836149 -0.07578082 -0.02329864 0.0016728495 -0.020812463 0.047942385 0.051293798 0.14416273 -0.0429395 -0.103118695 -0.0053881845 -0.038159262 0.04406298 0.115921244 0.07959063 -0.054578602 -0.11616313 -0.076166384 -0.083044 0.030995218 -0.013578819 0.12559254 -0.015602669 -0.028411854 -0.0806607 -0.10024861 -0.070996866 0.0022662932 0.12852621 -0.0261416 -0.054068074 -0.038322624 -0.022828227 -0.048959546 -0.060857315 -0.031449676 0.111168325 0.14891991 0.11162141 0.23295471 0.26792124 0.23382947 0.28065732 0.09745719 0.09209302 0.11535409 0.06498347 0.16846679 0.11929271 0.14780988 0.08910013 0.080252804 0.004215961 0.11526823 0.13417137 0.03618344 0.17744906 0.023645017 -0.02307806 -0.008311173 -0.07350226 0.015970513 -0.060793664 0.037576817 -0.0059702196 -0.11857275 -0.10807519 -0.2106435 -0.15454349 -0.11508969 -0.032461725 -0.047887284 -0.20625436 -0.13615058 -0.24024948 -0.12743887 -0.044798072 -0.104827635 -0.16072349 -0.27329442 -0.16327564 -0.3279428 -0.17502463 -0.13258986 -0.20382951 0.30244592 0.22328809 0.27753717 0.08806872 0.22484761 0.172272 0.19820526 0.233887 0.20635112 0.1586834 0.15813039 0.116658926 0.1624413 0.1419717 0.0472209 0.08078285 0.10551975 0.014583022 0.03271257 0.11912474 0.046760064 0.025766421 -0.007918275 -0.055213615 -0.06054348 -0.07633745 -0.054948583 0.048574366 0.011782376 -0.054319657 -0.14225754 -0.16108167 -0.12906097 -0.16250874 -0.009927562 -0.14047255 -0.12551908 -0.22111143 -0.2757913 -0.25860676 -0.2283077 -0.11359998 -0.07268753 -0.15995267 -0.26944685 -0.2854697 -0.20594408 -0.27562982 -0.1347375 -0.12461258 -0.30783993 -0.3160595 -0.30443716 -0.17903453 -0.053854693 0.14267977 -0.035149157 -0.2891144 -0.2945623 -0.2829171 -0.12548667 -0.09903369 0.17050985 -0.15976512 -0.36819506 -0.34976 -0.33559635 -0.20746975 -0.021204792 0.19644354 -0.2953316 -0.47902396 -0.4548005 -0.46505532 -0.3373567 -0.17251961 0.12085736 -0.2782688 -0.33880293 -0.42297766 -0.3295751 -0.13272758 -0.11045938 0.23999906 -0.13912703 -0.25927952 -0.23292282 -0.24078079 -0.13590923 0.053158086 0.21393068 0.13208078 -0.14420815 -0.06370918 -0.00083154405 0.13483506 0.14325477 0.28917006 0.09465511 0.08482343 0.090397075 0.003312966 0.05245425 0.14957492 0.1409114 0.17065223 0.020209044 0.11582685 0.027061677 0.061312027 0.10795695 0.18991068 0.112358876 8.0602615e-05 0.113262326 0.04615308 0.122822136 0.089986995 0.22047725 0.10003087 -0.014769797 0.0878576 -0.03659821 0.13777117 0.0974368 0.1305048 0.11840355 -0.030772489 0.0741379 -0.015940003 0.12736286 0.16694395 0.17971423 0.059950516 -0.05387819 -0.056251355 0.046656866 0.065803185 0.13918974 0.10625312 0.00974079 -0.05163978 -0.011350727 0.014413052 0.06042058 0.14377458 0.07166971 0.11228265 0.12908898 -0.020600336 0.057457246 0.06462834 0.07259649 0.061470274 0.09987925 0.15289053 0.116357066 -0.0018775843 0.080364846 0.050899066 0.06566987 0.11253309 -0.025278348 0.104239196 -0.0304426 0.028608225 0.06396711 -0.0134890955 -0.004359906 -0.038055427 -0.021896234 0.077058755 0.038019124 0.06295584 -0.0015785103 0.03736145 -0.003970015 0.05281696 -0.045431644 -0.00776693 0.06236279 0.08076377 0.06044333 -0.10684297 -0.078221515 0.022306874 0.027789736 -0.018697236 0.07245661 0.007775622 -0.06990282 0.032121807 -0.110669546 0.0033890482 -0.02251529 -0.042065926 0.051181026 0.016713941 0.031785123 0.07655107 0.06314308 -0.0064787623 0.02511356 -0.07774881 0.007879876 -0.0807404 0.21128054 0.03685562 0.029978456 -0.13429508 -0.04456398 0.14369954 0.1313938 0.26688328 0.13635603 0.11173074 -0.090460934 0.035209976 0.15340021 0.18734118 0.36022353 0.26405284 0.13367742 -0.034113094 0.15568337 0.29996842 0.22887301 0.4228041 0.40871698 0.21806367 0.07052867 0.061449997 0.11024882 0.10338341 0.3945547 0.31397712 0.020690253 -0.10349881 -0.057781294 0.0024250671 0.16992112 0.3693995 0.163437 0.060190093 -0.1646217 -0.15797558 -0.083660245 -0.11093103 -0.027514359 -0.028497756 -0.09248951 -0.19866315 -0.19797741 -0.09549535 -0.07384389 0.009922473 -0.06883892 -0.1671575 -0.114047036 -0.105562516 -0.09616381 0.056617174 0.004117892 0.054610576 0.052727215 -0.045835294 0.1003082 0.062473904 0.04502557 0.22685641 0.03843579 0.06761237 -0.029893974 0.073056534 0.07334482 0.17719603 0.1940066 0.1493155 0.19839695 0.062397067 0.03217617 0.13897413 0.1889558 0.289085 0.19944723 0.0803921 0.008495246 0.102309294 0.23655595 0.1652954 0.25222194 0.30713597 0.18140812 0.046987515 -0.02104374 -0.12500294 0.0027922075 -0.08865533 -0.06253668 -0.13761608 -0.06987668 -0.15262255 -0.052522995 -0.11175838 -0.123030655 -0.10748493 -0.15622798 -0.14564657 -0.0016790507 0.01491451 0.017098436 -0.048786506 0.025182787 -0.034660783 -0.056116875 -0.043368477 0.01836942 -0.0094417455 0.055443574 0.06821649 -0.010504414 -0.076807 0.08563001 0.04389231 0.036973584 0.04463247 0.07256841 0.054516178 0.057589665 0.0005509805 0.05476815 0.08288103 0.032444913 0.15164599 0.11325851 0.05358183 0.08577522 0.15093671 0.015765054 0.17035764 0.10559963 0.12558797 -0.017826963 -0.19421636 -0.12526534 -0.046036165 0.072557926 0.004471407 -0.016113752 -0.1625027 -0.22208847 -0.028488994 0.009593461 0.013230974 -0.016645685 -0.021201523 -0.08796725 -0.04739529 0.0024011896 0.04916447 0.10224011 0.08055158 0.059346005 -0.06782024 -0.021172827 0.09356982 0.21261129 0.24587356 0.18636125 0.08484844 0.011990689 0.07661715 0.18187483 0.1727706 0.2034921 0.0967631 0.18281086 0.07792496 0.08578581 0.017928807 0.11085003 0.19991864 0.1706592 0.17601958 0.030706972 -0.09231611 0.049451217 0.01302149 0.18486272 0.022883736 0.06606299 -0.047348004 0.09498049 0.16322854 0.15941684 0.20828362 0.08412686 0.033109557 -0.17716925 0.23464856 0.27953866 0.2213268 0.25506333 0.038343787 0.012140549 -0.11160803 0.21707654 0.32823706 0.21717615 0.22880736 0.07367159 0.09090892 -0.16870877 0.40962142 0.36506623 0.3092423 0.29057804 0.12597102 0.14786667 -0.08649862 0.34068346 0.35351214 0.29461458 0.1821008 0.09141766 0.020234322 -0.12314032 0.24818636 0.14466347 0.06761101 0.07706301 0.072064646 -0.070702046 -0.25015637 0.03037363 0.07534338 0.008666837 0.03779463 -0.119269714 -0.11916664 -0.4046153 0.07670158 0.03519394 -0.06571306 -0.033560652 -0.018422896 -0.061149172 -0.09348683 -0.042493396 -0.031508666 -0.07548938 -0.0010480937 -0.13348751 -0.026191276 -0.11409514 -0.026187116 0.08204781 0.026023814 0.035359316 -0.042389657 -0.018768426 -0.07177987 0.09073347 0.116463 0.010159951 0.037898313 -0.09212931 -0.040059853 -0.1884148 0.14004941 0.027673759 0.04975139 -0.002028064 -0.11010918 -0.017440528 -0.104101874 -0.01810564 0.0452851 0.04088291 -0.034348104 -0.13697766 -0.08522566 -0.15077642 -0.042586185 -0.003200809 -0.071250245 -0.07759397 -0.026859239 -0.06334194 -0.2442723 0.04516322 0.094884284 -0.0004741685 0.15375388 0.03261067 0.12735161 0.046849836 0.035365943 0.09324419 0.13534702 0.13766704 0.18260117 0.083874196 0.0796981 0.16316618 0.06795025 0.19112414 0.098148726 0.14878371 0.15133178 0.060185175 0.022342967 0.11715845 0.17044906 0.17799206 0.12987827 0.15375432 0.19587263 0.08027088 0.19352013 0.20875327 0.19143324 0.10394501 0.16435404 0.20942713 0.100927666 0.1056662 0.15578641 0.10227059 0.1386217 0.11355018 0.17127469 0.13793753 0.12154654 0.10748447 0.12621194 0.244901 0.14735891 0.16528066 -0.04847821 -0.03894308 -0.09360049 -0.0756585 -0.09307369 -0.082617775 -0.02234553 0.009895169 -0.04461265 -0.12529044 -0.03355281 0.004127101 -0.058188494 -0.09347162 -0.05734622 -0.13516873 0.00077161944 -0.1202481 -0.054906998 0.016206814 -0.036363326 -0.14928623 -0.080102086 -0.105691195 -0.019453568 -0.16322877 -0.13546422 -0.07280143 -0.09564919 -0.11210461 -0.053476714 -0.06869807 -0.06011614 -0.08965686 -0.056903094 -0.08383556 -0.0034687642 -0.1377111 -0.15251689 -0.021302668 0.0147848725 -0.057913855 -0.0858028 -0.12826276 -0.12383484 -0.030650977 -0.06274393 -0.00650972 0.047130827 0.16001527 0.05776251 0.12814014 0.04387941 -0.057276305 0.06381868 0.04449154 0.014574778 0.01705649 0.04871701 -0.007919305 -0.0207368 -0.0635143 -0.019981176 0.022872644 -0.038054317 -0.11202009 -0.12565348 -0.14820454 -0.10415962 0.020984339 -0.08253471 -0.22470734 -0.16908711 -0.28906453 -0.27872118 -0.12437124 -0.15582712 -0.18636787 -0.21009429 -0.22291121 -0.21500622 -0.3453709 -0.21362017 -0.1608285 -0.06271316 -0.10550494 -0.14855376 -0.14410533 -0.22654004 -0.14710619 -0.15652473 -0.0859094 -0.19265062 -0.1457625 -0.16825087 -0.17673229 -0.16513357 -0.15752858 -0.058599614 -0.09120805 -0.013052413 -0.014819327 -0.038840856 0.055471215 0.07241927 -0.0584377 0.0051051727 -0.06337942 -0.07540599 0.036992643 0.045073513 0.09746299 0.011347055 0.09118231 -0.0019235628 0.022867374 0.08012532 0.11683056 0.16217029 0.04852845 0.0813153 0.075371794 -0.0628729 -0.06119978 0.04017169 0.09428326 -0.014358039 0.0215051 0.08263865 -0.020008545 0.07088056 0.03286035 0.14235882 0.10173665 0.05345198 0.016251385 0.14155911 0.07215998 0.068511106 0.13013798 0.08549052 0.21832271 0.12173234 0.17016469 0.10600387 0.23300032 0.17961241 0.16793038 0.13150015 -0.011261254 -0.09959797 -0.12401021 0.029301489 0.014150942 0.13266589 0.05356276 -0.10932777 -0.2131993 -0.2516995 -0.11114889 -0.013829896 0.0059013185 0.06744771 -0.23176424 -0.2259448 -0.42389882 -0.16048037 -0.080264784 0.0358241 -0.034596693 -0.27784628 -0.44707862 -0.51315737 -0.3174454 -0.21857908 -0.097145654 -0.11378236 -0.28881145 -0.5421377 -0.55428624 -0.39150724 -0.23502393 0.018779231 0.04511683 -0.11080046 -0.316089 -0.42695466 -0.24947295 -0.088144675 0.06516569 -0.012880141 -0.21138163 -0.18100703 -0.32815588 -0.1931608 -0.03693336 0.20950092 0.18071504 0.101202175 0.14985485 0.06549637 0.17535129 0.06751263 0.2794521 0.13317353 0.13950683 0.039410498 0.13877627 0.064377785 0.06460244 0.23658529 0.23605238 0.106548905 0.12172036 0.024244586 0.13815309 0.0012263607 0.19650081 0.20298266 0.03604285 -0.011438362 0.012422378 -0.02496814 0.059712276 0.082589164 0.19273554 0.053295203 -0.036598835 -0.062397506 0.030842103 0.04665085 0.07703605 0.10963867 0.0069413683 0.0721191 -0.0021331708 0.07435807 -0.036581673 0.039411668 0.028308205 0.103519715 0.06081166 -0.060999192 -0.074261524 -0.062383197 0.2610805 0.23839383 0.1758151 0.17554769 0.30892137 0.19426149 0.20728983 0.2830946 0.16991578 0.25774905 0.32776502 0.22846231 0.27446654 0.22018602 0.26456258 0.2336718 0.22411829 0.15887359 0.21356507 0.13207357 0.2454267 0.20238899 0.30410925 0.19835477 0.27040282 0.1902282 0.18386887 0.19533317 0.18221387 0.21357055 0.20209667 0.2452333 0.18337871 0.25881657 0.17945491 0.20152995 0.15005812 0.21163675 0.15558238 0.20572746 0.060771078 0.13248184 0.03652895 0.036779072 0.10588533 0.10716851 0.16024607 0.021296732 0.029161718 0.052548777 0.011052531 0.0037641942 0.06264545 -0.073194414 -0.057176944 -0.051390026 -0.040293254 0.028433226 -0.012348333 -0.07513317 -0.003703092 0.014685162 -0.025135528 -0.008530372 -0.0005732181 -0.008392303 -0.0060478626 0.009722544 -0.10498576 0.038970508 -0.0071084476 -0.036390454 -0.062952675 0.011151137 0.026457857 0.043068558 0.06039638 -0.015477039 0.03811546 -0.0662796 0.0035124796 0.040794555 -0.038136505 -0.085061766 -0.03372801 -0.007326823 -0.04613105 0.0050748168 -0.0016976175 -0.03184421 -0.1087092 -0.013322997 -0.042584304 -0.12320554 -0.10440763 -0.0071562547 -0.008451539 -0.09893359 -0.15364511 -0.068541735 -0.15599738 -0.06261372 -0.19210546 -0.14702336 -0.10206181 -0.14815277 -0.19216853 -0.18670605 -0.09656057 -0.15882152 -0.20612846 -0.09544851 -0.09792622 -0.04780295 -0.10833888 -0.17475556 -0.103860736 -0.15390207 -0.05613295 -0.121310405 -0.09474472 -0.08242098 -0.15730715 -0.09212115 -0.08889847 -0.13316767 -0.11296043 -0.084883355 -0.14189604 -0.07967365 -0.1060281 -0.009080324 -0.15847723 -0.12033719 -0.03909465 -0.019358963 -0.13845354 -0.008112607 -0.12691426 -0.048418358 0.0025664873 -0.028105255 -0.11657203 -0.06433645 -0.14664824 -0.07255819 -0.114211045 0.0562596 -0.005102496 0.020672562 0.010524539 0.14051308 0.06752935 0.14415924 0.036185957 0.1165234 0.07180352 0.16181073 0.095303416 0.18587115 0.09644473 -0.066918924 0.020686608 0.054433465 0.018207246 0.09662849 0.014594132 -0.022850793 0.049905527 -0.07742811 -0.030746393 0.08635255 0.032507602 0.07864474 0.033258032 -0.06924525 -0.12105447 -0.13321002 0.0032100016 -0.043135155 -0.0006922275 -0.017751364 -0.13617098 -0.08228494 -0.14244848 -0.06463472 -0.06818971 0.0072557996 -0.12148416 -0.20254667 -0.1502173 -0.22859412 -0.060092293 -0.15943044 -0.14410004 -0.08343175 0.27149478 0.17563531 0.29045984 0.35115826 0.26872832 0.24337785 0.1355943 0.2480227 0.25054887 0.33219096 0.39245436 0.30381858 0.30637765 0.10818152 0.24694715 0.11523061 0.28100315 0.21238154 0.23701166 0.082403384 0.12832929 0.11393216 0.099082865 0.17314698 0.052362215 0.1609555 0.11530959 -0.031474434 -0.016485553 -0.078207284 -0.111886226 -0.016926788 -0.05468172 -0.15402262 -0.19216466 -0.04156116 -0.03801201 -0.15736121 -0.092877984 -0.13240418 -0.11662004 -0.18268678 -0.21900573 -0.21328415 -0.32412133 -0.34675995 -0.31207317 -0.23930997 -0.3521955 0.07066656 0.013916067 0.010153372 -0.0406973 0.07459728 -0.05279451 -0.060507916 0.111268535 0.116325736 0.029852016 0.12713335 -0.030583307 0.10686901 0.01256069 0.10148601 0.046321794 0.07170407 0.04539758 -0.014777276 0.06621545 -0.03397205 0.10700699 -0.001597655 -0.030305766 -0.03715682 -0.06068808 -0.043798447 -0.102208726 -0.024389885 0.0521273 0.013007318 0.005428826 -0.0073132366 -0.0018435678 -0.051244196 0.059820034 -0.007375109 0.020967193 0.02762453 -0.11942762 -0.10340749 -0.04340509 -0.03693104 -0.06675275 -0.14176455 -0.1157715 -0.075783156 -0.19941966 -0.22473392 -0.1894516 -0.14328961 -0.056429245 -0.11751616 -0.13654158 -0.1282569 -0.078641236 -0.27173904 -0.16197784 -0.1262988 -0.16033937 -0.13123167 -0.10184357 -0.14870307 -0.085878454 -0.2126828 -0.1446077 0.01738482 -0.10770904 0.014853822 -0.030308941 -0.09649497 -0.2248229 -0.18285564 -0.12195459 0.017712051 -0.04698375 0.011569841 -0.17922322 -0.18535201 0.001215618 0.03583941 -0.073687 0.046185862 0.05837982 -0.07045862 -0.07602503 -0.14857298 -0.08055381 -0.06693285 -0.10620437 -0.0016442095 -0.1514165 -0.10558902 -0.088202775 0.05895768 0.06453737 -0.03313405 -0.0084257545 0.10474029 0.17480062 0.1984388 0.28355977 0.23445857 0.18883789 0.052452408 0.101533644 0.00524561 0.1884296 0.12629521 0.23368703 0.12558733 0.11393381 0.19839127 0.06265192 0.14317729 0.35272533 0.27216405 0.14411172 0.18650565 0.12903401 0.1914545 0.1951194 0.22122684 0.2619834 0.23638846 0.19420628 0.21556023 0.21169569 0.23145853 0.34318548 0.38110295 0.19678855 0.106298104 0.0718059 0.06258014 0.1244017 0.28435808 0.20186901 0.1144283 -0.008357095 -0.027799575 0.06745736 0.17446017 0.13943134 0.19692795 0.13278966 0.029259479 0.03385553 -0.020844026 -0.033965927 -0.09958248 -0.105725884 -0.17461589 -0.22112961 -0.01900092 -0.042718254 -0.110396214 0.03237961 -0.036024753 -0.19150198 -0.22385342 0.05410837 0.044279885 -0.012728117 0.02318947 0.044547047 -0.02584702 -0.11487459 0.043058656 0.0709278 -0.046182256 0.06774082 -0.025184734 -0.015968144 -0.070518404 0.05444267 0.049963553 -0.0058509717 0.07428083 0.06758167 -0.029113282 -0.082178235 0.10181683 -0.04717836 0.09491927 0.09280603 0.092525065 -0.10035102 -0.054583654 0.04361802 0.07632344 0.111740746 0.01811556 0.041746777 -0.04027298 -0.098365456 -0.10782781 -0.02216189 -0.09822214 0.06401874 0.03602425 0.0025974687 -0.09537166 -0.08893042 -0.08710362 -0.03130439 0.047525793 -0.04215162 -0.049511075 -0.14193921 -0.08966329 -0.009643665 -0.078496054 -0.011816847 -0.06196668 -0.021495206 -0.07223289 -0.14364229 -0.08130527 -0.034983117 -0.08606038 -0.06400304 0.0033551236 -0.026268937 -0.06250968 -0.029859332 -0.09554668 -0.007040245 0.06617915 -0.030599752 -0.115665786 -0.12497368 -0.059606604 -0.07967835 0.0014959723 -0.06336699 -0.015933473 -0.010106386 -0.087327644 -0.060835566 -0.021222211 -0.060364477 -0.048583467 -0.012054035 -0.034274954 -0.048293345 0.013994541 -0.06885544 0.047711104 0.011837224 -0.022156551 -0.0029598335 -0.018470515 -0.058895394 0.058126114 -0.033715416 -0.04585333 0.01203145 -0.049407 -0.019572817 0.0037448832 0.0039425287 0.09240243 0.114684485 0.063153856 -0.0647953 0.010924229 0.04755485 -0.011331108 0.11295238 0.08114531 0.035075128 0.06839839 -0.03505796 0.04034676 -0.009994702 0.07833305 0.13385805 -0.01537504 -0.064366646 -0.08321511 -0.08106644 -0.026213832 0.073554985 0.027895119 0.08654636 0.0732145 0.0427166 -0.048010368 0.066167355 0.023562528 0.1406635 0.032738086 0.05945407 -0.0007849263 -0.048033174 0.14798267 0.1858395 0.22774151 -0.011338564 -0.036783025 0.025837922 0.05985184 0.185318 0.27319333 0.3207283 0.16619173 0.01820047 -0.0492108 0.08864867 0.22423437 0.392495 0.29268435 0.23313257 0.0909518 0.08796173 0.32225144 0.44281062 0.53392357 0.43077886 0.30843925 0.17584524 0.20485769 0.33873308 0.41381237 0.6442624 0.5089471 0.319731 0.31726015 0.052168693 0.15943716 0.30803502 0.4756194 0.48442212 0.2719254 0.1641943 -0.012324509 0.2380625 0.21319394 0.42800182 0.4558592 0.26745394 0.16681501 0.042919528 0.09499155 0.12821399 0.11612649 0.110138096 0.17718045 0.112562075 0.1033351 0.19295175 0.074063495 0.13979529 0.17566085 0.23670813 0.08540739 0.033758827 0.09559171 0.101836205 0.18752411 0.12861255 0.18756439 0.15306605 0.10456995 0.15717107 0.16934629 0.11890815 0.20999041 0.20494369 0.13746202 0.04903009 0.18367827 0.21284409 0.10427975 0.095272474 0.13908286 0.22946589 0.09331416 0.13400483 0.10062032 0.1436034 0.22609116 0.14671685 0.16995147 0.05656701 0.14610983 0.18988055 0.214243 0.19178995 0.23204538 0.18187349 -0.011745466 -0.14941536 -0.17319201 -0.1628914 -0.15977341 -0.15231253 -0.1019935 -0.0038584128 -0.10734346 -0.14335054 -0.13057424 -0.0987838 -0.17145444 -0.084239796 -0.14432518 -0.105963565 -0.055638418 -0.07699735 -0.19488351 -0.19801375 -0.12435837 -0.01506983 -0.06973695 -0.073101625 -0.07746515 -0.13418487 -0.12950711 -0.2166416 -0.088421084 -0.063626744 -0.21459867 -0.18208928 -0.16517016 -0.12077844 -0.13710742 -0.05463868 -0.025927369 -0.121688075 -0.07396393 -0.090453506 -0.18408605 -0.1584997 -0.0021330954 -0.15133356 -0.16390051 -0.16441487 -0.047736824 -0.1730485 -0.12544148 -0.053450294 0.016240936 0.047583763 -0.0030819231 -0.049179565 0.010641536 0.060902335 0.044944957 0.06848889 -0.010159107 0.030203016 -0.018375585 -0.059528768 -0.012531551 0.06288603 -0.08645203 -0.01001846 -0.069341846 -0.0959168 0.011867715 -0.08400084 0.032863952 -0.05005198 -0.032461938 -0.094386265 -0.012998378 -0.07430071 0.02827201 0.037910525 -0.00043454356 -0.015544556 -0.013210351 -0.044892065 -0.105110064 -0.07800191 -0.055638805 0.038287118 -0.064107366 -0.08870767 -0.034720864 -0.0397374 -0.084082685 -0.06673149 -0.09297368 -0.08944566 -0.11009448 0.010235384 -0.044932388 0.0026539231 -0.27319944 -0.30789226 -0.21811126 -0.22708832 -0.18108499 -0.18476841 -0.20538294 -0.17627062 -0.15251812 -0.22438568 -0.21113245 -0.092513666 -0.108542025 -0.18885122 -0.19591936 -0.06577078 -0.08936595 -0.0167363 -0.11356616 -0.078702256 -0.112836346 -0.12873068 -0.072167404 0.020523706 0.08990453 0.030321058 0.063797966 -0.0389578 0.020197192 0.11538639 0.07987906 0.19452854 0.1571806 0.032517854 0.04800888 0.17517324 0.1893696 0.19108957 0.20366737 0.11195421 0.17543934 0.09338559 0.17802121 0.13137181 0.20815563 0.3289607 0.20808192 0.34267578 0.30738467 -0.04069767 -0.16177903 -0.098802306 -0.16850366 -0.150114 -0.13183637 -0.18479915 -0.0923033 -0.14771028 -0.15221272 -0.015354251 -0.12264035 -0.06095132 -0.16449408 -0.039203737 -0.040312972 -0.028949723 0.002670933 -0.07394662 -0.09789059 -0.115371436 -0.04573846 -0.011959201 0.06668986 0.10520196 -0.049207836 0.066236846 0.058716215 0.10946707 0.11868648 0.0046151094 0.14100935 0.061955426 0.062105652 -0.034885168 0.022074929 0.024776679 0.05615776 0.076973215 0.1374216 0.019478902 0.032464173 0.08897658 0.17803584 0.20103909 0.11728843 0.15577161 0.19100057 0.17630221 0.0058977706 -0.024824409 0.030058239 0.0043771826 -0.099477395 0.0013120825 0.023432286 0.09603038 0.014546447 0.05034855 -0.037313703 0.06418462 -0.0971826 0.02818978 0.029438438 0.03978853 -0.02246129 0.058768887 -0.021235818 -0.005749287 0.04105565 0.07357736 0.09211764 0.05138589 -0.040078864 -0.07087273 -0.0037367719 -0.11844987 0.0032206404 0.07575973 -0.05583374 0.046919443 -0.01870625 -0.0703451 -0.1052138 0.09797059 -0.011893489 0.014011083 -0.054741498 -0.0008449376 -0.045794744 -0.07668016 0.07988473 0.042696454 -0.06582427 0.08247075 0.025968261 -0.011850974 -0.048059124 -0.27985477 -0.25829795 -0.17008965 -0.044416398 0.03145995 -0.09474784 -0.036653597 -0.20485768 -0.24491052 -0.12090362 -0.12347269 0.03668692 0.047915205 0.007722421 -0.19063069 -0.17762284 -0.12344734 0.03248698 0.072752245 0.036102537 0.17749807 -0.23116268 -0.12970492 -0.11761822 -0.03891059 0.105952755 0.044135872 0.2246101 -0.12480568 -0.09919995 0.051304337 0.15073644 0.12413781 0.19700682 0.20487121 -0.16302586 -0.094423436 0.06339653 0.06385228 0.08688084 0.25212777 0.26839656 -0.14670485 0.024255395 0.054795466 0.20319669 0.27146503 0.27100396 0.20850135 -0.2715257 -0.20486909 -0.14177601 -0.012134081 -0.036362465 0.09378166 0.07626765 -0.29269376 -0.18304226 -0.1553605 -0.0076947804 0.027416933 0.10536077 0.12958384 -0.21558136 -0.09048787 -0.11294548 0.03635462 0.054456707 0.09252642 0.21800235 -0.28719226 -0.18078047 -0.02305107 -0.0066004465 0.07703629 0.118461154 0.18258627 -0.23564138 -0.051803954 0.02884579 0.051127896 0.1671148 0.13694751 0.17326011 -0.1271074 -0.11675679 -0.036723282 0.1579196 0.18982676 0.17177899 0.19691712 -0.1484913 -0.049061216 0.065770805 0.118958585 0.1630157 0.111782454 0.14145187 -0.009698408 -0.081814274 -0.05386232 -0.06359659 -0.094428875 -0.0029274998 -0.07492205 -0.150386 0.011846282 0.04154767 0.0151492115 -0.01419406 -0.097065635 0.03302663 -0.12678945 -0.071687154 -0.066126466 -0.020687727 0.102286726 0.08247253 -0.021792496 -0.08563673 -0.03976429 0.033649184 0.09685865 0.042360265 0.11503177 0.083757326 -0.033838224 -0.0760449 -0.001141164 0.04250525 0.16668274 0.100685485 -0.0029821782 -0.021623358 0.03366023 -0.019141963 -0.01870979 0.036775824 0.08902893 0.012060069 -0.013469565 0.06305632 0.05110942 0.031710725 0.118441895 0.062431403 -0.01512782 0.111628994 0.16970356 0.17487851 0.09974448 0.10192644 0.20649482 0.13583758 0.03450554 0.15382311 0.13446432 0.16483533 0.17915677 0.16271292 0.0815029 0.046941046 0.081518166 0.011520187 -0.0041663605 0.09930388 0.017101903 0.13470449 0.016958138 -0.032395054 -0.027922487 -0.048650753 0.08825522 0.006576154 0.050846044 -0.0151564935 -0.044276714 -0.09837016 0.019066 0.011269686 -0.11452344 -0.029188862 -0.21010011 -0.14079733 -0.106834486 -0.11666304 -0.1589646 -0.121873654 -0.13723634 -0.13207482 -0.11284331 -0.10694006 -0.15050638 -0.060995594 -0.1718993 -0.15234542 -0.04816889 -0.07713916 0.02567622 0.0024235595 -0.052383978 0.0027736162 -0.1170249 -0.04358162 -0.08197347 0.036435734 -0.043630272 -0.011785644 0.009873196 -0.08332884 0.049666084 -0.069537275 -0.06347403 0.05196164 0.0072933477 -0.07754757 -0.077165835 0.037078686 0.017803919 -0.075986676 0.06382806 -0.042852182 0.014964116 -0.09082384 0.018311964 0.11329785 0.038974937 -0.020705676 0.06617037 0.09334083 -0.007563756 -0.07440043 -0.020512016 -0.025707537 0.011173154 -0.0074846614 -0.061310112 0.0031131885 0.05933088 0.077952415 0.12409296 0.088064395 0.067851394 0.11763606 -0.02715659 -0.28800577 -0.23946615 -0.31328845 -0.34407774 -0.38250628 -0.31996968 -0.3987156 -0.24728465 -0.2225949 -0.21312751 -0.26798952 -0.32314134 -0.37178186 -0.2911587 -0.07475963 -0.13845347 -0.058903307 -0.074615724 -0.121483974 -0.19477423 -0.27650666 -0.104022 0.08884384 0.036016 -0.025213394 -0.043785628 -0.08252918 -0.09836736 0.11907044 0.19053164 0.19244796 0.14786339 0.22104338 0.078260444 0.08683754 0.27806985 0.32022542 0.32144347 0.23928674 0.27961323 0.19603549 0.12394329 0.30171257 0.3612712 0.41984865 0.4800448 0.43620372 0.2512428 0.22246669 -0.024699017 0.0071958154 -0.11709536 -0.07919146 -0.006239218 0.010609823 -0.10706119 -0.13745129 -0.0152374795 -0.023392668 -0.097955965 -0.044973593 0.002459859 -0.11753534 -0.12341795 -0.0759477 -0.10305066 -0.07484459 -0.1160988 -0.068090506 -0.07322064 -0.030866917 -0.057825845 -0.16949339 -0.1541744 -0.01950601 -0.12305595 -0.1303111 -0.07101162 -0.16042769 -0.15259387 -0.077157214 -0.044469398 -0.06963855 -0.023720901 -0.12974618 -0.09379462 -0.1507009 -0.12015069 -0.07657585 -0.15393834 -0.106595516 -0.06725827 -0.09196776 -0.06659942 -0.1755466 -0.08222728 -0.074834436 -0.11352128 0.04074794 -0.053823825 -0.05661757 -0.019543367 -0.013189462 -0.11544565 -0.0061533516 0.020696664 -0.08818532 -0.10238876 -0.08707823 -0.050816562 -0.03326416 -0.06674021 -0.083170086 0.0037921902 -0.05908158 0.005103389 -0.06281448 -0.08035937 -0.04295788 0.0073052384 -0.08195048 -0.011556545 0.053525135 -0.080516554 0.0068293447 0.014372711 0.024940664 0.003563996 -0.08605201 -0.08296967 -0.063852884 0.040827002 -0.05336934 0.016636303 0.04085758 -0.118982896 -0.0028624642 -0.088208206 0.030491544 -0.07798836 -0.04089688 -0.035421215 0.0049823388 0.02569153 0.034206256 -0.10996539 -0.002608209 0.04107887 0.023516731 -0.005977119 0.04550945 -0.0030948112 -0.015310118 -0.01755407 0.018970491 0.17258108 0.14008585 0.14129117 0.08420398 0.17185856 0.07455118 0.06094301 0.18171252 0.23531651 0.29764718 0.22559525 0.17311293 0.14858362 0.11426192 0.3064313 0.32709023 0.3949532 0.27040225 0.32365048 0.21315564 0.2974274 0.32901335 0.25065508 0.4066449 0.411244 0.2529064 0.20792468 0.19546619 0.153786 0.22965473 0.24855068 0.3274855 0.1279566 0.13190721 0.11623631 0.29041755 0.2528284 0.34366614 0.33165 0.20581196 0.12165366 -0.0017413725 0.0041025756 -0.16405003 -0.2997978 -0.2572889 -0.19027783 -0.11316495 -0.10606005 -0.08722049 -0.28427348 -0.3939345 -0.39610487 -0.2222274 -0.2858735 -0.11611306 -0.03535563 -0.22874264 -0.3307493 -0.2569487 -0.27419743 -0.18844745 0.039137777 0.041522615 -0.17710231 -0.21935253 -0.12845656 -0.12557958 -0.020137982 -0.0068002176 0.02751579 -0.013034036 -0.09386107 -0.042960986 0.013039582 0.015734881 0.16760407 0.07216758 0.11667747 0.04600062 -0.020089366 0.009376113 0.14061366 0.18821865 0.24505462 0.12450181 0.21920924 0.15115002 0.1646414 0.22624753 0.041797403 0.09809164 0.05590702 -0.111800835 -0.060452435 0.053746846 0.02163758 -0.05676113 -0.025550866 -0.15178463 -0.11184145 -0.25964946 -0.12272172 -0.057412013 -0.023785517 -0.0046534585 -0.053819407 -0.1734324 -0.113394015 -0.1528819 -0.044748995 0.028959623 -0.00050583674 -0.054815486 -0.19508494 -0.11582645 -0.0104846945 -0.012945266 0.15410714 0.15431234 0.07435837 -0.05165501 -0.034258924 -0.026270587 0.022161286 0.20974898 0.08323442 0.10133921 0.06779131 0.039278183 0.12435634 0.08397199 0.2565276 0.23088883 0.23211576 0.078289255 0.12897477 0.16321503 0.20323399 0.1712055 0.012037318 -0.060243417 -0.11814534 -0.026753189 0.03004122 0.10540085 -0.014763968 -0.00036257127 -0.17281038 -0.140437 -0.12871334 -0.1081399 -0.087642476 -0.027680825 0.011859123 -0.06600516 -0.1469536 -0.21915701 -0.15307494 -0.09696185 -0.021279436 0.022876935 -0.07586311 -0.11215601 -0.20676297 -0.034766573 -0.08113841 0.08345764 0.005081068 -0.011581805 -0.048748966 -0.06613849 0.053179514 -0.030240973 0.19456363 0.07598804 0.011640153 -0.10318169 -0.03275412 0.10488545 0.039937638 0.21260163 0.13160245 0.068737715 0.0071308506 0.09302191 0.12412932 0.10672864 -0.15986346 -0.07786009 -0.021344619 -0.10991557 -0.033111915 -0.04427898 -0.011449309 -0.15689537 -0.057070717 -0.11790186 -0.03963426 -0.04239438 -0.13188249 -0.061253436 -0.16512483 -0.010434768 -0.13529593 -0.1186804 -0.12219691 -0.07278971 0.0237659 0.012414034 0.0015702405 -0.08357121 0.03154388 0.016231615 0.05293198 0.023741007 0.08502893 0.062145658 0.10448718 0.031836145 0.07551258 0.021513307 0.0122724855 0.013690689 0.12060546 0.058942787 0.12255688 0.13053812 0.08231348 0.04233026 0.123822704 0.06699547 0.1103746 0.17471607 0.09234815 0.073719084 0.1655292 0.06637272 0.10834498 -0.0016995062 -0.0010355338 -0.14546922 -0.01246939 -0.10885608 0.033333123 -0.01621888 -0.0694373 -0.13575388 -0.09123881 -0.21687941 -0.2605943 0.031355165 0.12579519 0.016398229 -0.13563383 -0.17299238 -0.065323785 -0.14943404 0.0829144 0.0031625465 0.06025968 -0.024041228 -0.12280203 -0.18619798 -0.23150165 0.10987325 0.12963428 0.122873165 0.023642361 0.0019217621 -0.12315608 -0.03886109 0.14493997 0.17660554 0.035484094 0.05301226 -0.08689439 0.024909243 -0.016855247 0.10103832 0.18605149 0.06841837 0.13809992 0.039670628 0.071422875 -0.0007961049 0.2641673 0.2795043 0.19549194 0.06691726 -0.07226307 -0.16607587 -0.19680154 0.20011288 0.10956814 0.012500146 -0.12569365 -0.16902472 -0.26745993 -0.33361807 0.2138119 0.26692402 -0.0016544042 -0.09298877 -0.24107891 -0.2629371 -0.34841764 0.2345571 0.23269622 0.10427695 -0.011516777 -0.24156624 -0.22968008 -0.28272814 0.37721726 0.30030236 0.059328582 0.08811918 -0.1467909 -0.21620391 -0.27657148 0.35798788 0.16200328 0.04805331 -0.049665697 -0.07830396 -0.20900674 -0.34776357 0.32332122 0.26008517 0.17835909 0.032408707 -0.027084516 -0.049656373 -0.18350728 -0.34656832 -0.30098033 -0.17619601 -0.1397662 -0.07086593 -0.30947685 -0.38276762 -0.20760839 -0.20761342 -0.16939008 -0.048217807 -0.018295584 -0.18088132 -0.16281879 -0.09733438 -0.16845047 -0.021681057 0.08001098 0.19256261 0.10575533 -0.055995956 0.08189563 0.0062024663 0.09717092 0.28586176 0.33551645 0.23592214 0.18364719 0.1184101 0.1839193 0.27531993 0.4425133 0.45401275 0.38458708 0.21158452 0.052231725 0.06914558 0.27972776 0.44230992 0.33395118 0.33506516 0.26350158 0.101044044 0.060286976 0.21500497 0.38925633 0.44790518 0.20057712 0.19677098 0.1471392 0.003513427 0.14465486 0.07882315 0.13589612 0.09420298 0.07481539 0.05051818 -0.017481938 0.12544005 0.123196304 0.029039284 0.068363845 0.027497528 -0.034845777 0.034253195 0.13237916 0.064892806 0.14924926 0.083867185 0.08103447 0.102891326 -0.0013854781 0.12079766 0.1357241 0.14773946 0.12400908 -0.044898838 -0.074161835 0.012637184 0.040599372 -0.011063655 0.049543656 0.061932802 0.02707889 0.0018683585 -0.079043664 -0.026380708 0.011667464 -0.047866404 -0.07490739 -0.052704632 -0.11391522 -0.20974967 -0.20715454 -0.12914132 -0.035984945 -0.18700302 -0.13379402 0.10322056 0.09140777 0.07150002 0.047838863 0.096239254 0.009247829 0.018046167 0.103092834 0.07067082 0.08952873 0.01272834 -0.036230274 -0.033078894 0.00949451 0.03248314 -0.059742197 -0.008249 0.08887906 0.05821967 -0.02847443 -0.027316142 -0.052607637 -0.07468078 0.054117262 -0.04761242 0.042625725 -0.098439686 -0.13602999 -0.04128338 -0.04130975 -0.06772054 -0.07691648 -0.046680268 -0.08148745 -0.022641817 -0.019812724 -0.12655616 -0.08342173 -0.11407892 -0.023035757 -0.047790907 -0.13400833 -0.12103917 -0.16179498 -0.08931852 -0.12344019 -0.15057307 -0.08268897 -0.21072747 0.006241994 0.0028438622 -0.026952779 -0.10320843 -0.03865058 -0.12763557 -0.11823065 0.058653474 0.06434976 0.068510406 0.0015287277 0.0006443608 0.0036615143 -0.11760348 0.07630578 0.03901428 -0.07796688 -0.08391895 -0.0142681245 -0.08131441 -0.13125454 0.14424826 -0.012239888 -0.013871417 -0.08402622 -0.11546377 -0.015275641 -0.10238178 0.19791506 0.14470415 0.036165364 0.06630656 -0.09474518 -0.11291969 -0.07472394 0.1328383 0.075675786 0.12127607 -0.00709016 -0.061703965 -0.09358711 0.026211448 0.17350711 0.07980614 0.15339382 0.11640688 -0.017898995 -0.04012745 0.044357028 0.35046443 0.24790451 0.14259557 -0.025880598 -0.049493056 0.024652887 -0.0244673 0.29850322 0.13222799 0.035512503 0.065021195 -0.09852847 -0.088346906 -0.097690515 0.26014146 0.12109151 0.04639326 -0.022899663 -0.14027928 -0.12265214 -0.22004557 0.23591395 0.037069917 0.016010221 -0.11475673 -0.12692666 -0.1316766 -0.22092544 0.25700426 0.118848585 0.0500137 -0.012865863 -0.10920336 -0.23341542 -0.27735204 0.22854976 0.19559385 -0.05409625 -0.041489713 -0.18415242 -0.0791586 -0.2508895 0.24283163 0.16381793 0.015116662 -0.008982121 -0.12308543 -0.09766267 -0.23205657 0.31372958 0.2212193 0.2020167 0.17147197 0.06453773 0.053062305 -0.012041625 0.23177947 0.16202167 0.167067 0.12654546 -0.050346963 0.012150708 -0.049150158 0.281727 0.14539135 0.08982317 0.013785306 -0.1556509 -0.015859548 -0.14808527 0.22314507 0.053424813 -0.022035908 -0.17700258 -0.16274843 -0.17486593 -0.11955555 0.11032551 0.005970908 0.012854157 -0.2101039 -0.26710764 -0.1355816 -0.2878139 0.23986486 0.03666088 0.030993225 -0.12024809 -0.2527772 -0.18721806 -0.13584861 0.22246271 0.021879975 -0.10008485 -0.14649037 -0.16851339 -0.22164683 -0.2048917 -0.00059651554 0.0031251344 0.13882096 0.11532157 0.14698696 0.06698289 0.14046209 0.017340867 0.14130034 0.15692224 0.13106461 0.15425615 0.12801574 0.06565846 0.12380321 0.14993586 0.07890577 0.048657205 0.206947 0.024329178 0.08893014 0.09631299 0.13267294 0.18461187 0.14193955 0.11175792 0.16317873 0.18095572 0.11868215 0.09388025 0.047474667 0.08640978 0.1405011 0.15191157 0.09204289 0.10674092 0.09531324 0.14096051 0.1409691 0.10638668 0.05649453 -0.019552717 0.029217098 0.09355155 0.14190824 0.16761066 0.10121497 0.0113304835 0.048693746 -0.063827425 -0.139305 -0.09416473 -0.13986878 -0.0867257 -0.15662153 -0.142993 -0.18126726 -0.2120206 -0.16265915 -0.1271332 -0.12275459 -0.078793034 -0.10276186 -0.16701032 -0.15152034 -0.22093104 -0.20134303 -0.17361438 -0.075373985 -0.13229969 -0.17462951 -0.124050595 -0.19908626 -0.1870549 -0.23196717 -0.20511858 -0.18393418 -0.07784047 -0.121743575 -0.109098 -0.19007894 -0.20908383 -0.13548627 -0.2012607 -0.066746384 -0.13348378 -0.23926324 -0.24168676 -0.08296547 -0.095498756 -0.076507725 -0.13019116 -0.11583245 -0.19990727 -0.1847036 -0.21966779 -0.08081776 -0.1877055 -0.014512987 -0.036821313 -0.0047043804 0.08301021 0.105711974 0.1540856 0.025214562 0.036222935 0.020571163 0.036297534 0.11849277 0.06400413 0.122969754 0.16554688 -0.04083737 0.014786187 0.09118776 0.06468035 0.11420008 0.12128173 0.04334815 0.029900584 0.0045063132 0.061217755 0.06511697 -0.0026815108 0.09553033 0.063257575 -0.0001929463 0.12936094 0.09560371 0.13016656 0.055662047 0.08146031 0.1297975 -0.0008667589 0.10416167 -0.022195537 0.027287705 0.106265984 0.10899376 -0.0003647201 0.022750834 0.1133984 0.09233585 0.012462411 0.094765306 -0.0128575675 0.102994785 -0.042781882 -0.03079647 -0.019613894 -0.111937284 -0.14891265 -0.18004672 -0.10112369 -0.01888082 -0.04036762 -0.04742775 -0.020121383 -0.05526015 -0.028737128 -0.087888904 -0.04528244 -0.027854795 -0.031922724 -0.048046906 -0.04567356 -0.02247017 0.020005397 0.009819674 -0.002863832 -0.018836716 -0.034893982 -0.029489882 0.0381043 -0.062399253 -0.0034537658 0.002342785 0.0062549943 0.068115614 -0.016904123 0.05816516 0.07418485 0.07565007 0.013216504 0.025812255 0.09951224 0.0069285515 -0.016264867 0.09752498 0.0012064665 0.17021511 0.11093104 0.14176616 0.035950243 0.011851616 0.15821506 0.058108106 0.13985042 0.04331255 -0.01786037 -0.036267266 0.01712778 0.1463278 0.09727399 0.09927716 0.029141715 0.009473902 0.030136492 0.020605154 0.0023040117 -0.0017896704 0.13758664 0.01481137 -0.004308402 -0.02877893 0.02670955 0.06600308 0.07881941 0.05846291 -0.0346628 -0.04479645 -0.011306809 0.04805384 0.006246596 0.011646108 0.068719395 -0.026828265 0.051434644 0.05223017 0.028141601 0.04533583 0.1240452 0.13856252 -0.014090295 0.010103573 -0.051304232 0.07421691 0.13061428 0.1588439 0.014496715 -0.022424499 0.03777708 -0.01511282 0.12288252 0.1405981 0.3073608 0.20408292 0.13245292 0.013516959 -0.07360569 0.09172734 0.29238006 0.22420187 0.0971697 0.07260483 -0.07665905 -0.22285227 0.009004062 0.17625655 0.12357993 -0.048199244 -0.14899401 -0.35473615 -0.31246024 -0.20411335 -0.07025698 -0.074200355 -0.1664752 -0.40781337 -0.64941716 -0.6313669 -0.35224384 -0.27112278 -0.14814349 -0.20846443 -0.38143852 -0.62036526 -0.5375186 -0.46008325 -0.3469645 -0.018284852 -0.093200274 -0.27139017 -0.4367055 -0.56898624 -0.36472595 -0.13849437 0.12223149 -0.07018055 -0.1671383 -0.429832 -0.393687 -0.17767523 -0.16098303 0.0918343 0.0326451 0.012336142 0.025929723 0.110132895 0.096834846 0.00409725 0.08685042 0.09114378 0.11494934 0.04607067 0.07060186 0.060858555 0.014642343 -0.009944741 0.058184758 0.0018795325 0.11974762 0.0069532786 0.056384653 0.09332957 0.05312707 -0.014293556 -0.004709959 -0.001014362 0.012021573 -0.034043167 0.060625374 0.014166367 0.011991408 0.03382597 -0.090859614 -0.10190897 0.016979592 0.012996285 -0.025754647 -0.0062422105 0.014642705 -0.030799318 -0.099640906 -0.12664568 -0.03444479 -0.03450717 -0.05436549 -0.13654499 -0.0440409 -0.1915852 -0.13825007 -0.19744566 0.28939384 0.34011006 0.22889923 0.2667697 0.20811939 0.083525114 0.116690546 0.18939628 0.20378184 0.2615641 0.17063224 0.13800156 0.08889011 0.12150988 0.24988443 0.08383195 0.06926943 0.03918765 0.031863544 0.09027664 0.05656305 0.04316648 0.025151927 -0.014184053 -0.06491459 0.050047033 -0.06220738 -0.087242715 -0.015407821 -0.07607117 -0.06462824 -0.031333577 -0.12168619 -0.17740153 -0.1624274 0.062169127 -0.014762343 -0.04860102 -0.19672492 -0.1898959 -0.2513881 -0.26740533 -0.14816837 -0.04448293 -0.25113797 -0.26595038 -0.27533653 -0.31625283 -0.37030083 0.1707937 0.18351512 0.06774746 0.15149921 0.13969256 0.043215882 0.09563661 0.23577036 0.124330826 0.2066918 0.112862565 0.12695117 0.042948246 -0.07475825 0.16479923 0.19634318 0.07703507 0.12652789 0.006250673 -0.102227196 -0.1444567 0.13229607 0.13455965 0.09664316 0.07487003 -0.025409304 -0.14383407 -0.16369082 0.14229551 -0.036480308 -0.09519924 -0.099427305 -0.10945805 -0.21804996 -0.1912196 0.04306684 0.0021830455 -0.0024747693 0.00049540977 -0.11935266 -0.22737174 -0.25463936 0.048010614 0.03943559 -0.08002934 -0.19194174 -0.21382087 -0.16323262 -0.31799695 -0.080358714 -0.13622086 -0.12732051 -0.11495702 -0.15794955 -0.041587994 0.01525307 -0.18205772 -0.12532169 -0.036217473 -0.07299643 -0.12412032 -0.06988317 -0.062547565 -0.06595005 -0.033111066 -0.10037737 -0.23363549 -0.19724126 -0.062654234 -0.045005437 -0.14514245 -0.14517665 -0.100864 -0.14368199 -0.1880574 -0.08043763 -0.031423956 -0.040615823 -0.11454416 -0.14734939 -0.062461093 -0.085164465 -0.02450366 -0.0058123455 0.024721645 0.020407345 0.0037595795 -0.006731083 -0.06822744 -0.025010012 0.107965164 0.07451804 0.010222458 -0.026491547 0.014146826 -0.06427325 0.0014222985 0.15502484 -0.061865322 0.06208121 0.03316989 0.008219459 -0.087124504 0.07555564 0.07452776 -0.08748939 0.07980413 -0.07417364 -0.071698256 -0.035966985 -0.048394445 0.10630786 -0.06446315 0.043565433 -0.03785015 -0.15791956 -0.05328556 0.06638301 0.13875262 -0.012529114 -0.023389742 -0.09457131 -0.076384485 -0.13338041 -0.012556529 0.14809585 0.0035725373 0.0543168 0.022691097 -0.12203103 -0.011934284 -0.021172196 0.16077533 0.1081294 0.09282134 -0.006322356 -0.028992815 -0.017084753 0.008835559 0.14496939 0.07007858 0.10158284 0.01857868 0.040015638 0.029532978 0.083766595 0.16098614 0.29050273 0.2571126 0.19264778 0.009350227 0.029249761 0.1268657 0.16954836 0.24982211 0.12807961 0.029195854 0.037218153 -0.018513458 0.0070943637 0.17109917 0.14862289 0.09569008 -0.108691834 -0.15526648 -0.1863978 -0.1448185 0.036768507 -0.019577729 -0.0588534 -0.21677752 -0.3103213 -0.35899186 -0.1847835 -0.14776142 -0.12457988 -0.04150757 -0.13959643 -0.41357374 -0.3903805 -0.25814372 -0.14907147 -0.012795184 -0.08934127 -0.081186086 -0.23433891 -0.26644507 -0.23776565 -0.09763432 0.09942049 -0.004533107 -0.18779397 -0.3089555 -0.27290758 -0.18074785 -0.15141533 -0.099387735 -0.05662939 -0.1472991 -0.0777528 -0.18514387 -0.18804406 -0.18825285 -0.027989466 -0.099369384 -0.15879647 -0.1138984 -0.19379917 -0.2116233 -0.2523622 0.09109695 -0.08966789 -0.009685502 -0.15193073 -0.03143573 -0.16315638 -0.1434772 0.037376955 0.06920399 0.08049865 -0.023163587 -0.07771839 -0.0120252315 -0.121452935 0.098820046 0.14585242 0.031292237 0.012221514 0.035927877 0.049284894 -0.08970811 0.11726014 0.16176495 0.096693516 0.15586443 0.017144939 0.06916433 0.0072783576 0.25940192 0.25900793 0.2855242 0.26388824 0.13555187 0.17932837 0.14120704 -0.022724582 -0.03448449 -0.09402224 -0.045212433 -0.061056048 -0.18489787 -0.1907747 -0.1160765 -0.13932025 -0.14934057 -0.07707773 -0.10452554 -0.06803779 -0.18937959 -0.10824171 -0.07228399 -0.0022787235 -0.039783698 -0.046248484 -0.14672469 -0.047016997 0.0048290323 0.04943798 -0.08573764 0.04827629 0.032436386 0.036518842 -0.03523136 0.11691863 0.10845598 0.072675414 -0.019150693 0.12658831 0.016220773 0.08746063 0.09785183 0.058106553 0.04114172 0.09772058 -0.0053070234 0.056750365 0.06057358 0.13053195 0.18367836 0.19954523 0.17692219 0.07979077 0.10965714 0.1624041 -0.24936567 -0.1731948 -0.12903348 -0.15608422 -0.046983376 -0.04508524 0.16270849 -0.24904886 -0.21427996 -0.19205585 -0.0472456 -0.11197266 0.066879846 0.028417548 -0.13720483 -0.1970814 -0.17820933 -0.059417274 -0.0037669158 0.0884249 0.18031442 -0.2050209 -0.09976756 -0.047775704 -0.020808384 0.013632664 0.07135113 0.17808177 -0.04943081 -0.018695988 0.0134850005 -0.049472954 0.14721845 0.12667845 0.17114753 -0.14255296 -0.12445079 0.064815424 0.0015172147 0.11693991 0.15987512 0.15707648 -0.045524035 0.030642249 0.0584669 0.18135396 0.15658337 0.28058055 0.30530718 -0.055098724 0.04666431 0.091354124 0.14178929 0.11409162 0.12172032 0.20149584 0.037749108 0.015054411 0.06122588 0.028235044 0.2148006 0.18381162 0.1770902 -0.07169078 -0.046824884 -0.032036398 0.10576289 0.10548807 0.16805895 0.16268227 -0.13200259 -0.12377618 0.035811447 -0.04254931 0.03432867 0.15194447 0.091109425 -0.21620983 -0.05120667 -0.1415912 -0.009445822 -0.06387101 0.076914154 0.047652554 -0.24544407 -0.15633227 -0.1742596 -0.06890967 0.0035810953 -0.04201379 0.090769455 -0.23893863 -0.21574873 -0.21403089 -0.10004869 -0.061217353 -0.09571641 0.037746347 -0.017239548 -0.10413996 -0.02950516 0.030295677 0.19184247 0.1014452 0.23450832 -0.050299656 -0.05547798 0.059007447 0.14260383 0.16893965 0.19150907 0.27954012 -0.15475965 -0.071661 0.00686216 0.07738119 0.12551886 0.15225364 0.11733303 -0.19211856 -0.15845522 -0.016941309 -0.0025011029 0.026121607 0.041540373 0.12522095 -0.23882498 -0.15900269 -0.14440082 -0.07206345 0.06801011 0.13875197 0.104943804 -0.2735683 -0.13739158 -0.08926887 -0.001595206 -0.06801839 0.005229503 0.20513354 -0.2905229 -0.2635672 -0.18669184 -0.085600644 -0.018362254 -0.040962614 0.14546034 -0.13423416 -0.124242306 0.054686263 -0.050619803 0.067304075 0.04035901 0.16321619 -0.061929975 0.023573233 -0.008594362 -0.039628316 0.010956862 0.102667525 0.20725411 -0.17694074 -0.17302644 0.015493025 -0.0017256095 0.07356039 0.15286763 0.08244836 -0.116596766 -0.16566573 -0.007840197 0.015352175 0.1267417 0.067472555 0.22694522 -0.13326837 -0.18554966 -0.10569228 -0.06890355 0.015397005 -0.0030000163 0.053121295 -0.07227992 -0.04966701 -0.0946029 0.04298026 0.09825268 0.14958957 0.080277614 -0.13053863 -0.19432814 -0.08111313 -0.012824441 0.011349644 0.07622784 0.048981793 -0.11980384 -0.08216893 -0.120172106 -0.016040916 0.017605849 0.0418842 -0.022375233 -0.13290063 -0.04343297 -0.07925112 0.045703266 0.1429164 0.13390774 0.13343062 -0.2164922 -0.14451426 0.016523313 0.13956638 0.20048344 0.054631095 0.026894199 -0.10529012 -0.095314495 -0.027835349 0.09331259 0.08083717 0.19767158 0.21844016 -0.08840044 -0.07230018 0.06940945 0.1153143 0.15665264 0.13907617 0.062400956 -0.1675378 -0.077877186 0.040279068 0.07711486 0.052714087 0.1453615 0.0354194 -0.0952606 -0.17163557 0.039372534 0.0023892503 0.049743373 0.07589446 0.04247414 -0.08998618 -0.065176316 -0.012009774 0.111141734 0.062494084 0.060713045 0.083676435 -0.08879579 -0.109011576 0.07837863 0.043143194 0.15935728 0.06779415 0.16001718 -0.20946789 -0.1850789 0.06342639 0.009333427 0.19914673 0.06721557 0.1392912 -0.12553473 -0.11897826 0.025097052 0.14095972 0.2294138 0.036488306 0.07963277 -0.22725432 -0.07074323 -0.03678832 0.09833045 0.12584527 0.12775283 0.05872217 -0.2968489 -0.18121053 -0.07682705 0.07172055 0.00046498302 -0.02030778 -0.026204819 -0.33450553 -0.27356663 -0.1558394 -0.040697206 -0.061626777 -0.101912476 -0.09030895 -0.11567652 -0.01088768 -0.07429054 0.025618684 -0.073539115 -0.28699183 -0.42425826 -0.11592612 0.12669103 0.20208548 0.26693445 0.23132297 -0.13669905 -0.22342698 0.022688823 0.104943246 0.23622048 0.2823765 0.3112258 0.023758136 -0.083230235 0.031413823 0.093524456 0.27218062 0.42417574 0.3358063 0.07209105 -0.075245686 -0.021970795 0.06999256 0.18112011 0.31868857 0.32039818 0.042737134 -0.1551752 0.018011576 0.10244277 0.20964651 0.19544038 0.21948127 -0.053824972 -0.14041345 -0.15223902 0.016191868 0.04143104 0.06720136 0.091709375 -0.18650815 -0.2841783 -0.2712528 -0.2108078 -0.2595895 -0.03150562 -0.15686628 -0.09944466 -0.14161405 -0.20357054 -0.22032079 -0.07962091 0.030940095 -0.032946818 -0.20183049 -0.15988903 -0.124257155 -0.049006805 -0.101502486 -0.019758014 -0.023340227 -0.06455827 -0.04566445 -0.008928605 0.049699344 0.05586241 0.083038785 0.0908922 0.059424914 -0.087896615 0.02423892 0.05358078 0.09622474 0.22516626 0.097942375 0.02777897 -0.004116414 0.10561856 0.030854015 0.10618019 0.19322693 0.16118076 0.09102725 0.0047283117 0.025103247 0.09388811 0.07785796 0.234904 0.10937285 0.1041159 -0.01786801 0.07089945 -0.019642081 0.071368694 0.36395752 0.20559095 0.11137229 -0.023120021 0.10475826 0.1266402 0.16321246 0.46323568 0.2192893 0.089035705 -0.12862852 0.12548101 0.16303633 0.1867154 0.5229479 0.2149282 0.22298415 -0.11139526 0.20193005 0.26081774 0.23773915 0.51239336 0.3794222 0.21930675 -0.029290177 0.012643364 -0.03160261 0.05862245 0.31653184 0.22345416 0.0775799 -0.28448114 0.012830802 -0.035758276 0.019081468 0.2506994 0.1947354 -0.06974559 -0.22332771 -0.2723044 -0.29102048 -0.3019356 -0.058330603 -0.08750772 -0.26057598 -0.4009119 0.069209635 0.070358224 0.06950994 0.10060088 0.08086889 0.06766359 -0.10131073 0.08899074 -0.05208143 -0.0016691631 -0.00447509 0.020526309 0.08052166 -0.047165595 0.021482298 0.012925784 -0.051921472 0.0835387 -0.060905 0.023301983 -0.076944984 -0.010626336 0.06765857 -0.005374709 0.021581663 0.00021927645 -0.022594208 -0.13365138 -0.0030849392 -0.04098012 -0.016152047 0.05401317 -0.09390689 -0.02856322 -0.08164022 0.037485935 0.00090382644 -0.0036512516 -0.021682795 -0.010515128 -0.10745387 -0.14874095 -0.14283499 -0.08619086 -0.18592271 -0.10534815 -0.16902922 -0.15880673 -0.14880066 -0.18266289 -0.079323806 0.017238514 -0.029470498 -0.056869723 0.055312634 0.028945046 -0.15873775 -0.13196725 -0.11969407 0.006968604 0.069858775 0.13455255 0.02259666 -0.1881327 -0.026488386 -0.0826257 0.006347721 0.0072707953 0.14634348 0.10346182 -0.1909502 -0.12352291 -0.062029667 0.0070100753 0.016841803 0.05881702 0.22185265 -0.17402741 -0.037532352 -0.019448757 0.091291465 0.06911951 0.063032575 0.17511687 -0.11903665 -0.124107845 0.0045957523 0.055379674 0.052076064 0.13591748 0.090523444 -0.121122226 -0.09937123 0.012417467 0.08683038 0.005386861 0.12623084 0.15929064 -0.15819305 -0.12535314 -0.034453478 0.059289265 0.018559687 0.056815486 0.21243878 -0.22314501 -0.19446257 -0.049564376 -0.076658465 0.14715368 0.17122765 0.2626517 -0.17458567 -0.106821015 -0.05067951 0.032210875 0.10349619 0.22146246 0.2253825 -0.23788336 -0.1797954 -0.040366516 -0.004334658 0.14955485 0.19166592 0.2568372 -0.23800944 -0.22168168 -0.0653 -0.091378815 0.0846045 0.1287144 0.20846222 -0.24791667 -0.23905626 -0.107266665 0.019611556 0.08972797 0.18620177 0.15405862 -0.24227326 -0.18170522 -0.06805136 -0.071638264 0.08229522 0.08727855 0.24718812 -0.07786603 -0.07589315 -0.05713366 0.068121746 0.058841392 0.094433375 0.23397826 -0.1370297 -0.11016822 -0.063046284 -0.02841131 0.041398987 0.07521771 0.22211602 -0.117460005 -0.17626047 -0.108055525 -0.02307303 0.037410997 0.13250731 0.13429976 -0.19210188 -0.1842892 -0.124032155 -0.06142163 -0.036111407 0.13529778 0.20531686 -0.16053137 -0.07527343 -0.082835644 -0.10894856 0.023278456 0.03538506 0.19515544 -0.14356397 -0.06962387 0.014335995 -0.044077076 -0.010210514 0.09118783 0.16795431 -0.10824548 -0.079128146 -0.016886063 -0.04372426 0.08273327 0.02376056 0.10039479 -0.16383904 -0.0056886496 -0.08912651 -0.010294287 -0.05076203 0.011834992 0.019239323 0.041216727 0.058547672 0.070553094 -0.004245937 0.017851418 -0.018605513 0.050110973 -0.0065691816 0.090244345 -0.022015948 -0.019915001 -0.028905824 -0.058545195 -0.08567486 0.055146154 0.07618251 -0.016135702 0.04948276 0.05535346 -0.041650593 -0.023576943 0.078483656 0.013322322 0.044904325 0.026035389 -0.030398397 -0.105589956 -0.12549172 -0.0492646 0.091514885 -0.009451344 0.09327742 0.081809096 0.033466313 0.036709692 -0.031254686 0.09037256 0.08729864 -0.009395597 -0.025186555 -0.006678824 -0.008386293 0.058440577 0.124051794 0.07028999 -0.010438775 -0.005464642 -0.006071928 -0.09150852 0.16761209 0.25665534 0.18093434 0.053531554 -0.061614245 -0.063661546 -0.066432156 0.22861622 0.13419122 0.011812205 0.014867194 -0.13283503 -0.1741012 -0.23208423 0.11910918 0.21882708 0.02784214 0.05446576 -0.04512851 -0.16973975 -0.23082592 0.13462871 0.24118286 0.05350546 0.03459286 -0.16906753 -0.1663313 -0.29874057 0.15325443 0.21890694 0.004350702 0.0063869827 -0.10121829 -0.14653593 -0.22903861 0.14942947 0.18432127 0.13221167 -0.07095591 -0.12905005 -0.11845531 -0.24828394 0.1794952 0.27230674 0.19728568 0.035386223 0.025688946 -0.11293063 -0.13217096 0.30386415 0.23945007 0.10888327 0.12967536 0.021948166 -0.16400084 -0.2409973 0.26270702 0.27137232 0.050973315 0.06578095 -0.040156666 -0.26188144 -0.29824385 0.18743029 0.2010965 0.07880695 -0.070712686 -0.20789866 -0.2860475 -0.34052315 0.2806155 0.19099832 0.04111573 -0.11423513 -0.17525965 -0.24671651 -0.39389652 0.21067065 0.25975135 0.103167705 -0.006764685 -0.1387202 -0.29012024 -0.33599752 0.21806017 0.20209804 0.040546156 -0.07785787 -0.1418316 -0.16541107 -0.28980303 0.20635514 0.15172978 0.15402174 0.070514895 0.08982991 0.15445541 0.19474904 0.10570402 0.124570996 0.14754634 0.17047863 0.14105582 0.061165396 0.06541732 0.035123233 0.08704565 0.096097894 0.044241197 0.081584774 0.014996692 0.08869798 0.007120755 -0.028022764 0.050956767 -0.052056324 -0.0759524 0.049854938 0.031612664 -0.08482948 0.00025338834 -0.08840783 -0.09712329 -0.01591786 -0.09140882 0.03768059 -0.09164769 -0.16667236 -0.18607777 -0.13936453 -0.11173275 -0.15107097 -0.092495516 -0.18997912 -0.23023826 -0.1635915 -0.16667406 -0.12180331 -0.16872089 -0.21907794 0.2536971 0.16345003 0.25069314 0.20053232 0.22962344 0.19422895 0.30302104 0.19932096 0.12895659 0.16278885 0.20833692 0.10717582 0.10806183 0.2817288 0.1204141 0.13781565 0.053578615 0.016325347 -0.029008733 0.09848338 0.17662376 -0.0003891044 0.106846996 0.06323233 0.002866002 -0.0051093926 -0.014652671 0.033928473 0.009096709 -0.0085908715 -0.15624022 -0.19095404 -0.09319674 -0.06662839 0.0010652164 -0.042663384 -0.21356519 -0.19007729 -0.2573143 -0.2888807 -0.17090249 -0.15053849 -0.26567724 -0.31441057 -0.32884535 -0.31015462 -0.33579418 -0.17250624 -0.19206762 0.14445359 0.05356237 0.07629985 0.041709036 0.09931817 -0.014258445 0.08949529 0.040528823 0.05506744 0.07540053 0.059131067 -0.008617332 0.04755762 0.13380073 -0.044709418 0.0014691952 -0.029303707 0.076133326 0.085050926 0.0509875 0.06586971 -0.041149985 0.06896304 0.069024086 -0.0052147903 -0.061724126 -0.055022735 0.009690896 -0.024992194 -0.019503858 -0.057683542 -0.037891917 -0.06571031 0.039562084 -0.057938065 -0.006915575 0.024029717 0.025385771 -0.10789631 -0.07357171 -0.08238272 -0.015363093 0.040928442 -0.101153456 -0.021295927 -0.10302891 -0.09713833 -0.15275344 0.038348936 0.043963626 -0.077940576 -0.01897809 -0.014206332 0.13665842 0.07976109 0.120732956 -0.07849051 -0.05885662 -0.068713315 0.0909592 0.0044772 0.07129779 0.014014461 0.009809354 -0.037706688 0.0100160325 0.08938331 -0.017316984 0.11548627 0.012770545 -0.019097574 -0.0062627965 -0.044451077 0.05253166 0.1069821 -0.00021566365 0.07757663 -0.12765473 -0.036194604 -0.03725918 -0.0755152 0.060546383 0.098834075 0.0145320995 -0.046840597 -0.07798665 -0.024313621 0.06430493 0.048894767 -0.004494547 0.114075 -0.059733912 -0.17080753 -0.009691232 -0.03223446 0.0416191 0.009287007 -0.004686764 -0.03774874 -0.023287086 0.048843786 -0.043913342 0.072886296 0.074121766 0.060629487 -0.15478934 -0.060154058 0.010969258 -0.03155733 0.039338868 0.0657743 0.17862089 -0.12564333 -0.07130798 0.0443993 -0.04829659 0.17833385 0.055604067 0.15815602 -0.13173068 -0.105559364 0.055022884 0.102657944 0.104904085 0.18257307 0.23036632 -0.16060047 -0.06290856 0.030374398 -0.013899198 0.17788006 0.2134848 0.22757263 -0.061824087 -0.08156899 -0.09287197 0.07607638 0.055944066 0.13861194 0.119087495 -0.20297657 -0.22209561 -0.068101965 -0.07767228 -0.031313688 0.07378232 0.16305041 -0.35621315 -0.2150933 -0.11868998 -0.05398432 0.029466 0.02265126 0.08393801 -0.30230713 -0.24579082 -0.21258323 -0.093909726 0.073019244 0.033045065 0.23572679 -0.24067272 -0.19922107 -0.07730561 0.06264814 0.09397727 0.2300485 0.35234416 -0.22163603 -0.1437118 -0.0856567 0.14427257 0.27271163 0.34562236 0.43267578 -0.24879625 -0.2593181 -0.09766689 0.134808 0.16574717 0.2695966 0.35368142 -0.26677096 -0.2198272 -0.07457984 0.008257365 0.17537409 0.34781405 0.4682481 -0.34439048 -0.31493762 -0.14325655 -0.074633196 0.18327211 0.22008479 0.30806342 0.12242847 -0.07096716 0.03774298 -0.057900377 0.08650115 0.0548153 0.14158161 0.03452283 -0.032857046 -0.004963287 -0.019699572 0.06644736 0.07845103 0.14849791 0.041072953 0.0032593259 -0.00864108 -0.011601687 -0.035078775 0.04834118 0.13116603 0.004863011 -0.0009901236 -0.04305389 -0.022965763 0.04543718 -0.041898806 0.093560055 -0.014062548 -0.15943548 -0.04552202 -0.08484866 -0.091615394 -0.033720642 0.12225554 -0.060199063 -0.13040477 -0.1477557 -0.06940303 -0.10524956 0.063895166 -0.03637801 -0.030622048 -0.24827416 -0.11145905 -0.0466761 -0.098598994 0.03362651 -0.047089193 0.11183388 0.09047293 0.11084263 0.1050276 0.20592292 0.118074924 0.20624076 0.11855016 -0.04211732 0.04852844 0.16010904 0.17870498 0.106744945 0.2104296 0.0033321613 -0.031192545 0.0011808334 0.08927334 0.1621541 0.0671134 0.18500379 -0.042752907 -0.08810385 -0.04989245 0.052561745 0.029407674 0.1191312 0.11080078 -0.053067103 -0.19462946 -0.20646183 -0.058352202 -0.017706431 0.07118669 0.14390877 -0.19668931 -0.31561792 -0.18255226 -0.20614953 -0.08705279 0.022124756 0.13454881 -0.09555756 -0.33204293 -0.20399825 -0.14537796 -0.10041876 -0.05758377 0.083566524 0.28519735 0.15428144 0.1057082 0.18245922 0.16982916 0.2694142 0.28311855 0.18581247 0.05214661 0.027532281 0.0044154786 0.06245576 0.14931788 0.3236662 0.032462697 -0.11011517 -0.04070253 -0.07267901 0.14245728 0.14115494 0.17589124 -0.03997693 -0.1288561 -0.19147679 -0.054408092 -0.055357467 -0.010167169 0.077437356 0.013426161 -0.2073445 -0.22518317 -0.059330415 -0.10122306 0.01019554 0.12485106 -0.158623 -0.17849071 -0.2677086 -0.15522374 -0.13737905 -0.006950162 -0.0047256397 -0.08130555 -0.36223352 -0.32512474 -0.28672725 -0.110533305 -0.021116931 0.017929371 0.19437885 0.12937249 0.17975023 0.21216433 0.2156414 0.18293075 0.19073051 0.16092181 0.24126972 0.16296497 0.08386701 0.17588599 0.079560876 0.21643025 0.11791364 0.15836827 0.044547547 0.09044435 0.14978606 0.15139477 0.16138564 0.0045087826 0.0064095026 0.08856386 0.08776022 0.008010267 0.07197545 0.1377916 -0.03242733 0.057297427 -0.028649064 0.03579469 0.04602064 0.045451 0.03277719 -0.07552556 -0.039727114 0.033147305 -0.049733076 -0.05147562 -0.087420605 -0.10673747 -0.09764836 -0.026568308 -0.15935983 -0.13589244 -0.16840991 -0.12645037 -0.055781655 0.08307457 0.06802655 0.101157725 0.030227128 0.0071930834 0.008007802 0.096180946 0.1118342 0.07691298 0.14245081 -0.019429594 -0.017035795 0.03048048 0.032936018 0.060114007 0.08451848 -0.052262753 -0.09045551 -0.040020846 -0.08430026 0.09012587 -0.0030524007 -0.02947185 -0.1183622 -0.013357721 -0.05736651 -0.029082244 -0.06808532 -0.12709315 -0.10462098 -0.19010557 -0.1664444 -0.11226142 -0.0662624 -0.13596013 -0.113427736 -0.05876994 -0.15006557 -0.20815022 -0.100407615 -0.16119634 -0.06918016 -0.004021779 -0.07493373 -0.072293 -0.24443802 -0.25283107 -0.109669976 -0.08097606 0.13906124 0.102635846 0.102241166 0.07611476 0.15272589 0.051012807 0.15281734 -0.0012998277 0.12304509 0.06484316 -0.043208376 0.021969384 0.10674615 0.13675033 -0.009289081 -0.11970314 -0.08614072 -0.21409646 -0.08504371 -0.10037465 0.00080653955 -0.027592417 -0.10379124 -0.13611844 -0.28753033 -0.29663262 -0.09112302 -0.100684226 -0.17521356 -0.16366321 -0.2893138 -0.2691683 -0.29759914 -0.24523236 -0.18766677 -0.026630685 -0.09551878 -0.14333051 -0.31827542 -0.24647883 -0.18634543 -0.079689845 -0.06835045 -0.12221575 -0.2534579 -0.25277144 -0.26489186 -0.12111072 -0.083596684 0.09457792 0.082788326 0.13426083 0.024097325 0.12734222 0.13764632 0.0027663312 0.14521146 0.10510145 0.12372833 0.19994207 0.16035634 0.09368114 0.06487451 0.12950648 0.13452184 0.14119203 0.15871672 0.21499771 0.12000591 0.10534732 0.13976058 0.22846012 0.200452 0.2003762 0.22628142 0.11465864 0.14603941 0.19367975 0.2393786 0.26226768 0.15222138 0.25824797 0.23576307 0.10335455 0.13422564 0.18856598 0.18630193 0.22076705 0.10697931 0.13707006 0.1571944 0.037434597 0.18347882 0.22351408 0.12647203 0.1887254 0.18674417 0.12350789 -0.10261727 -0.12177929 -0.11991264 -0.1539088 -0.010155325 -0.011661355 -0.06105057 -0.09835364 -0.019594906 -0.16250017 -0.05220167 -0.11152516 -0.02190379 -0.014269817 -0.11897195 -0.027388956 -0.14549236 -0.16292071 -0.1326994 -0.14313193 -0.0761013 -0.14985582 -0.15299924 -0.109485626 -0.14274554 -0.15083927 -0.13065536 0.008645878 0.006476463 -0.12555413 -0.031618513 -0.077705786 -0.06515577 -0.074443616 -0.009793829 -0.0049791466 -0.08105248 -0.020466227 -0.1659642 -0.017213717 -0.14444079 -0.07052438 -0.11709248 -0.016615044 0.0051659807 -0.112683594 -0.13188377 0.015978886 -0.019127246 -0.009509085 -0.05928399 -0.010585643 0.028526338 0.014732337 0.01827161 -0.025045568 0.048973892 -0.092248335 -0.056763712 -0.10968969 -0.05862367 -0.009276595 0.025713827 -0.064664125 -0.12273914 -0.13129807 -0.07411814 -0.05817114 -0.12256136 0.03709421 -0.0134176165 -0.08875637 -0.14883058 -0.15133956 -0.16121128 -0.08035281 -0.04223875 -0.0056274454 -0.06987346 -0.07412092 -0.19796753 -0.111187555 -0.14686945 -0.038519178 -0.021223444 -0.03409305 -0.06649656 -0.1992469 -0.12891689 -0.121906504 -0.07523092 -0.03534918 -0.0438583 -0.1676887 -0.09488804 -0.10176948 -0.1351557 -0.12217845 -0.22756466 -0.16400866 -0.22596984 -0.21700737 -0.16619447 -0.20519598 -0.2318202 -0.24179624 -0.20661026 -0.20343941 -0.20353732 -0.08017505 -0.21511349 -0.212716 -0.06804126 -0.12677073 -0.010461355 -0.08538126 0.013052685 -0.0069600153 -0.14239529 -0.08088976 -0.075904496 0.012532603 0.106394105 0.09727195 0.07538629 -0.0450535 -0.023720233 0.05678884 0.15818097 0.1404443 0.0626855 0.10088046 0.11311101 0.11036865 0.06398865 0.1858222 0.10333918 0.23313722 0.20621152 0.20827688 0.13880439 0.23946397 0.24791402 0.25734255 0.24821392 0.17696132 0.20519583 -0.055484943 -0.028289242 -0.07666472 -0.027056305 0.03350295 0.03913738 -0.07730175 -0.13589542 -0.039528098 0.007108711 -0.03582855 0.016973708 0.042739056 0.025060968 -0.070282005 0.05657307 0.07399683 0.032322638 0.01638372 0.099112615 -0.01988177 -0.04063427 0.026090015 0.033488918 0.120547354 0.06994561 0.078191295 0.04195377 -0.07044832 -0.021735132 0.09491719 0.035299305 0.13696015 0.09525609 0.036591392 -0.13822189 -0.096769 -0.009462525 0.08887992 0.06595946 0.019120682 -0.070546694 -0.20765065 -0.15020427 -0.058254138 0.060308978 0.041440897 0.012344574 -0.054066937 0.33779925 0.18119992 0.21664858 0.25629708 0.15713894 0.079443775 0.142335 0.21199904 0.13328199 0.18967235 0.11659413 0.15502495 0.01667951 0.09723139 0.20684151 0.044231832 0.19468363 0.060556665 0.046834584 -0.03090012 -0.015024475 0.13522062 0.042289384 0.13467239 0.08968196 0.045556553 0.06886741 0.02008652 -0.07782668 -0.028564697 -0.043565102 -0.075120755 -0.0024395653 -0.15607437 -0.10791712 -0.0509486 -0.14067839 -0.14038976 -0.09539503 -0.19995637 -0.105129085 -0.160568 -0.12952645 -0.3256895 -0.25955305 -0.3192687 -0.2299249 -0.23927996 -0.33640045 -0.13546571 -0.08547192 -0.06500716 -0.14406353 -0.17282483 -0.11373288 -0.18776381 -0.1348145 0.018328337 -0.11428503 -0.099782884 -0.037274495 -0.10980622 -0.11276501 -0.12427462 -0.08948654 -0.11854715 -0.060298253 -0.10886756 -0.031635977 -0.029870402 -0.1007805 0.016869085 -0.009798458 -0.056166336 -0.067331955 -0.11292365 -0.10041641 0.06596106 0.00017975803 -0.08539269 -0.0053148097 -0.017257435 0.0033810053 -0.087331474 -0.02030822 0.004033803 -0.0051793596 0.014604095 0.066374205 0.052542716 -0.04700658 0.029145166 0.0479695 -0.051308732 0.041652627 -0.036510766 -0.0010490491 -0.0472734 -0.114884816 0.03339219 -0.10237936 0.019391745 -0.07478508 -0.04293386 -0.065240845 -0.06824326 -0.014424655 -0.04287397 -0.14084087 0.019665666 -0.01898697 0.017302472 -0.02977924 0.05232461 -0.051687203 0.0016843948 -0.08275387 0.052951455 0.07031949 -0.0560709 0.0639689 -0.06418625 -0.022374257 0.006602324 -0.042831626 0.092970066 0.07529943 0.019521665 0.038360503 -0.037200022 0.06584742 0.05793349 0.11251542 0.05763037 0.02074602 0.10695464 -0.023671122 0.072935164 0.122181915 0.023502242 0.071737505 0.018792989 0.041379575 0.1108621 0.015872201 0.10781313 0.15233241 -0.042716403 -0.106120355 -0.03197858 -0.20204234 -0.23068796 0.023490598 0.1605198 -0.22208592 -0.15817706 -0.3224405 -0.41685167 -0.3088966 -0.21799277 -0.06576546 -0.19760175 -0.19672646 -0.36522135 -0.41072676 -0.394148 -0.16385917 0.044711713 -0.31249306 -0.33973664 -0.45708027 -0.61743015 -0.49150056 -0.34310168 -0.1533841 -0.26193407 -0.2958515 -0.30530286 -0.37078586 -0.43704307 -0.22409275 -0.1288807 -0.11462613 -0.18229882 -0.26543128 -0.41535318 -0.2722177 -0.15188545 -0.062442664 0.016582627 -0.079118796 -0.14002359 -0.13661598 -0.15327518 -0.09557357 0.12259546 -0.0017844322 0.010420433 0.0017510885 -0.092966326 -0.0015275701 -0.016490536 -0.019455006 -0.023737237 -0.010967203 -0.063188344 -0.049936637 0.0025545938 0.062304936 -0.029088994 -0.041298356 0.050009456 -0.09438258 0.0050497456 -0.11575018 -0.017335499 0.021484995 0.025500048 -0.020674337 -0.11816199 -0.007364466 -0.07741197 0.015501515 -0.036376607 -0.089151 -0.014920464 -0.12014917 0.013690387 -0.0921042 -0.113795735 -0.054488253 0.041646425 0.06745055 -0.09469996 -0.09627914 -0.096975096 -0.08055377 0.03467411 0.032067023 0.037388064 -0.09980023 -0.01753578 -0.12495373 -0.08274559 0.014616883 0.2055389 0.19688807 0.030321004 0.060294 0.05271222 0.043185007 0.07249362 0.20991096 0.2263366 0.1400392 0.09969011 0.034234043 0.026523383 -0.0020430745 0.16563667 0.13024011 0.117969714 -0.0049908417 0.03144581 0.061419506 -0.055090178 0.12885365 0.06641899 0.08369098 0.0015638813 -0.03949421 -0.12737302 0.031573415 0.13683358 0.05225822 0.023266092 -0.07995408 -0.052271232 -0.14187908 -0.028949318 0.07786041 0.13471632 0.0052406364 0.03476733 -0.12869447 -0.12741408 -0.04952827 0.18338718 0.053684015 -0.042976864 0.07703886 -0.09657287 -0.043928728 0.0078646345 0.18293864 0.18290131 -0.008024918 -0.10717364 -0.16261269 -0.1446871 -0.26919952 0.20942514 0.2437498 -0.04700657 -0.13183066 -0.14098987 -0.1852156 -0.2122835 0.29191813 0.11250136 -0.046825204 -0.17907064 -0.25886714 -0.3129576 -0.3068012 0.21588823 0.08324895 0.009186405 -0.2526967 -0.34970707 -0.42084515 -0.35815662 0.268799 0.0767399 0.012821595 -0.15584695 -0.29833272 -0.29545492 -0.3886455 0.27294022 0.22470842 0.11841323 0.011433054 -0.20286788 -0.18054663 -0.23282471 0.3496581 0.30709326 0.24901667 0.020523414 -0.049400017 -0.10228324 -0.19508809 -0.014238 0.018097788 -0.11068175 -0.12184848 -0.018111924 -0.00019379285 0.028112084 0.058667522 -0.07920634 -0.036635842 -0.10452434 -0.10097711 0.009691451 -0.06055414 -0.044584192 -0.1667042 -0.10368842 -0.15324652 -0.15309086 -0.08578319 -0.08373972 -0.09988657 -0.027861295 -0.14889203 -0.115209125 -0.18402736 -0.18518868 -0.15811133 -0.13700972 -0.084337585 -0.202426 -0.22207057 -0.20180249 -0.18436864 -0.07028971 -0.12212249 -0.11057611 -0.1998617 -0.1956087 -0.059035666 -0.14772548 -0.1090052 -0.06399673 -0.13137685 -0.025713757 -0.16919453 -0.047780216 -0.019984212 -0.0055477875 -0.13465333 -0.13583037 -0.102191105 -0.18537135 -0.19230372 -0.11157391 -0.109631434 -0.038567413 -0.06008574 -0.05651097 -0.036559436 -0.16705938 -0.13499233 -0.09664358 -0.080219954 -0.15280354 -0.13573833 -0.08859362 -0.07351787 -0.12113089 -0.17260107 -0.043989312 -0.050908867 -0.13769981 -0.17359596 -0.041197762 -0.025717631 -0.16449888 -0.11079109 -0.04878988 -0.10880327 -0.076093376 -0.17726722 -0.0835875 -0.058312334 0.02794304 -0.03498981 -0.049319208 -0.16279337 -0.024790566 -0.021974165 -0.14055836 -0.032745823 -0.116616905 -0.005986628 -0.15892927 -0.08484432 -0.100325815 -0.10543885 0.049496803 0.116726264 0.103883795 0.05360322 0.11031685 0.063501924 0.12585542 0.06394286 0.18200782 0.1912924 0.121297166 0.141697 0.15144339 0.16976073 0.11919768 0.20804378 0.21614103 0.18521139 0.097355634 0.20929627 0.19197601 0.16975647 0.16258366 0.13530889 0.16027923 0.16014624 0.1474169 0.15107723 0.05746659 0.08697145 0.20623691 0.118952245 0.104837455 0.21892874 0.2166038 0.110842876 0.06399758 0.20405497 0.21133627 0.07295809 0.14133768 0.10414555 0.15720323 0.08536562 0.0747939 0.18156591 0.03951049 0.1731129 0.056703594 0.086526796 0.07422842 -0.036468435 0.08528661 0.020357069 -0.023189766 0.05237796 0.07183879 0.06262365 -0.057986934 0.037905153 0.11595954 0.009586512 0.12004121 0.037576504 -0.009555571 0.058692604 -0.06307533 -0.05638123 0.0022215722 0.08658361 -0.018527973 -0.102288105 -0.076782644 -0.020719023 -0.079706 -0.0686173 -0.05565022 -0.08772099 -0.102679215 -0.029808803 -0.1664676 0.01662285 -0.09819479 0.051836282 -0.040574722 -0.11442677 0.00921599 -0.12653445 0.041931555 -0.0073752454 0.057065926 -0.02769473 -0.10182362 -0.02614692 -0.012755865 0.04398113 -0.056841526 0.04275125 -0.0311181 -0.15327659 -0.16403006 -0.2079352 -0.14001282 -0.05706512 -0.14859393 -0.1551948 -0.13053326 -0.1948481 -0.2194972 -0.16247009 -0.09463498 -0.11284066 -0.16402157 -0.23972224 -0.12276308 -0.14368427 -0.0996971 -0.10681897 -0.15750962 -0.12947994 -0.17367248 -0.21977468 -0.16828774 -0.10578794 -0.21313556 -0.026319873 -0.092573486 -0.24119359 -0.13187104 -0.1699272 -0.14515203 -0.13576236 -0.052151263 -0.12758632 -0.14173387 -0.20411918 -0.22443166 -0.13780956 -0.14340608 0.00068615715 -0.14063112 -0.23270805 -0.14209118 -0.13538401 -0.18742235 -0.18059893 -0.07962443 0.10598049 0.051549442 0.13007696 0.114879966 0.07983753 0.044577584 0.12909175 0.14844072 0.18554386 0.073885046 0.0621233 0.07937803 0.18061545 0.13134441 0.15735416 0.066912755 0.10039157 0.21954417 0.1656696 0.1266754 0.048863214 0.048357792 0.10617776 0.123531446 0.13155642 0.09446815 0.19890165 0.09089963 0.15027857 0.1254471 0.20969693 0.20077243 0.15180321 0.21525425 0.21000564 0.102025285 0.17593533 0.23097849 0.18638654 0.16289027 0.09739099 0.14026555 0.091530696 0.07593492 0.21019143 0.22602466 0.24169475 0.104133405 0.20751277 -0.17896575 -0.14010131 -0.14427035 -0.11291365 -0.10530862 -0.17182997 -0.009744063 0.015931275 0.03620007 -0.00841101 -0.053379454 0.02756329 0.045715306 0.06813899 0.0341295 -0.040502034 -0.06428616 -0.019335203 0.0003749523 -0.025069062 0.040360533 0.04307948 0.07408442 0.069699526 0.060752355 0.020053547 -0.015879778 0.111618474 -0.012568143 0.017004095 0.055847146 0.021809304 -0.011084067 0.033904612 0.027073484 0.08335045 0.122675374 0.009954518 0.05528466 0.053216606 0.14111646 0.22446391 0.16517758 0.17251569 0.13479441 0.020137208 0.13502215 0.19346358 0.24148981 0.07617361 0.063255936 0.053615555 0.019342946 0.115379505 0.038526364 0.1671016 0.18614776 0.13291071 0.08111806 -0.05215689 0.012963985 0.18977979 0.2004561 0.007840151 -0.015085153 -0.1769627 -0.114861414 0.0069991285 -0.046533164 0.19182144 -0.14553921 -0.18112463 -0.1980252 -0.29767618 -0.22112206 -0.084531076 -0.00060327654 -0.2078552 -0.22085863 -0.29472697 -0.44759983 -0.27869266 -0.21042812 -0.07309376 -0.061820086 -0.22915217 -0.32431215 -0.27296895 -0.24285361 -0.18888807 0.0862066 -0.14839797 -0.18643612 -0.31599057 -0.37120724 -0.24356754 -0.19981436 0.030781826 0.14890437 0.17219825 0.18229635 0.10734005 0.18407479 0.10974987 0.22739407 0.094387524 0.20420161 0.1782811 0.1380043 0.16306715 0.18385994 0.23323035 0.16715515 0.10102111 0.007661497 0.044420626 -0.04288304 -0.024880508 0.007785472 0.04648389 -0.06398724 0.024961492 -0.056939397 0.03647823 -0.036726233 0.06789863 0.01015182 -0.051708877 -0.1051747 -0.19709897 -0.062471837 -0.0423176 0.014259436 -0.06654842 -0.13724485 -0.10522858 -0.10701397 -0.1824604 -0.022367477 -0.07200746 -0.03681438 -0.12327315 -0.07688595 -0.16349842 -0.23164882 -0.12817143 -0.06962166 0.0853324 0.0641277 0.063896686 -0.012634569 -0.012685537 0.0057747103 -0.0955705 -0.029283134 0.097714044 0.0934507 -0.04351009 0.03164242 0.052765977 -0.031428915 0.0299081 0.027608134 0.11483143 -0.048622984 0.054312818 0.08805072 0.07108193 0.13179977 -0.002650781 -0.014388906 0.0581694 -0.014823923 0.09178959 0.056591976 0.105686545 0.16148989 0.011730043 0.10118187 -0.035777677 0.051059064 0.07787078 0.1464771 0.090564586 0.13691886 0.04720061 0.12257924 0.07784974 0.004990453 0.06743022 0.1058555 0.036474157 0.11744424 0.09941692 0.15214393 0.041832417 0.018180273 0.016630808 -0.010257371 -0.089186534 -0.17465256 -0.07242068 -0.09107426 -0.03326463 -0.013334417 -0.12662908 -0.11792012 -0.089814976 -0.11983401 -0.028320238 0.06745623 0.059576586 -0.13900368 -0.14745167 -0.1622105 -0.061433632 -0.042020824 -0.02673514 -0.017260838 -0.10698097 -0.119296715 -0.17740713 -0.13510504 -0.031036146 -0.020009147 -0.052998994 -0.01205957 -0.17482765 -0.14394236 -0.04284835 -0.120158285 -0.013466275 0.014663523 -0.051405307 -0.16114037 -0.15542518 -0.06308438 -0.05251521 0.014283078 0.047921557 -0.05276788 -0.03443613 -0.06746451 -0.003673149 0.07113318 0.19462155 0.08890762 -0.034845207 -0.1263495 -0.09698299 0.13740414 0.06770262 0.10647035 0.12681821 -0.107996136 -0.22932982 -0.15909284 -0.024755858 0.014885908 0.11187624 0.06373934 -0.0968817 -0.3011131 -0.3624315 -0.11218685 0.11620732 -0.22600134 -0.30512863 -0.47329006 -0.6208653 -0.7527509 -0.39199755 -0.3461058 -0.18022752 -0.17725895 -0.42187798 -0.6006459 -0.57799333 -0.3215174 -0.16346188 0.07764281 -0.09034876 -0.14693631 -0.33219698 -0.4625495 -0.21182613 -0.09462641 0.20032932 0.032957815 0.018817505 -0.18984875 -0.17454273 0.015913054 0.012477262 -0.22301671 -0.15767081 -0.037017036 0.012657362 0.015052977 -0.18355808 -0.15552695 -0.05758837 -0.18869106 -0.014686815 0.18563566 0.13945471 -0.14759336 -0.1350494 0.0051663015 0.052997515 0.10491277 0.35345343 0.3248031 0.05501279 -0.079322845 0.16953649 0.2384673 0.33781782 0.6350419 0.717079 0.38080502 0.20181154 0.24322383 0.41970932 0.4844619 0.8088353 0.8040316 0.4695105 0.28293526 0.06569222 0.09846873 0.2524282 0.39184287 0.38885608 0.24535853 0.18952152 0.15159981 0.0824915 0.26284924 0.39112222 0.4354009 0.22349209 0.15555234 -0.011676661 -0.015604678 0.047098123 -0.037746504 0.017205404 -0.038571354 0.016657561 -0.09706811 -0.13347384 -0.08903942 -0.014802721 0.020901227 -0.009484266 -0.004167637 0.012132898 -0.030773653 -0.14192918 0.009286089 0.015988424 -0.13703081 0.010872389 -0.004317602 -0.0258093 -0.12916455 0.020226592 -0.06866581 -0.094601914 -0.065175906 -0.00318119 -0.038081024 -0.032030806 -0.09328996 -0.027226672 -0.052088145 -0.11865492 -0.0765115 -0.075320065 -0.07763181 0.048640978 0.057149593 -0.022502871 -0.105676025 -0.02120435 -0.1213086 -0.16241829 0.0060257795 -0.06430752 -0.04362286 -0.13560061 0.05518425 0.11710067 0.113954894 0.013940087 0.12242858 -0.014535029 0.035850126 0.08433614 0.012258618 0.037311148 -0.05369234 